1 3
784 100 10 

100 1
-3.01926 
-0.873185 
-0.250479 
-1.67356 
-1.16019 
-1.70548 
-2.68423 
-2.3155 
-2.67414 
0.67889 
-0.943186 
-0.60678 
-0.0700347 
1.29375 
-1.43368 
-0.00520053 
-0.877969 
-2.11243 
0.20099 
0.404964 
-1.30383 
0.29599 
0.0800256 
1.68321 
-0.694553 
-0.175194 
-1.80186 
-0.483185 
-1.43463 
-0.271961 
0.883355 
-1.32511 
-0.000802642 
-0.522228 
-1.27777 
-1.00806 
0.300059 
-1.90428 
-2.00662 
-1.79717 
-0.739321 
-0.497262 
-0.970771 
1.79485 
-1.46386 
-0.97389 
-0.817192 
-1.17952 
-1.24186 
0.185614 
-1.33584 
-2.03173 
-1.12969 
1.21185 
0.614463 
-1.05588 
-0.18841 
0.985268 
-2.51153 
-0.519691 
-2.13973 
0.256093 
0.266862 
0.0399772 
-0.723412 
0.518231 
-1.48058 
-0.504336 
-3.40445 
-1.04048 
-0.437522 
-1.81821 
-0.633523 
-1.26285 
-2.27474 
0.640608 
0.344328 
-2.07969 
-2.07158 
-1.21776 
-1.09865 
-1.58465 
-1.42749 
-0.199462 
-0.190961 
-1.85997 
-0.680491 
-1.06124 
-0.726644 
-0.88465 
0.455553 
-1.49816 
-1.26185 
-0.930038 
-0.82346 
-2.05585 
-2.94273 
-1.15134 
-0.762217 
-0.965313 

10 1
-1.1131 
0.228128 
-3.17301 
-2.33696 
-2.73343 
-2.87515 
-1.35909 
-3.08241 
1.38576 
-2.58474 

100 784
0.027021 -0.0571641 0.0110455 -0.00864385 -0.0091809 0.00743844 0.00377058 -0.00431447 -0.0317251 0.0228247 0.0315051 -0.0625807 0.00925331 -0.039435 2.52205e-05 0.0424911 -0.00662921 0.0646018 -0.0640901 -0.00127325 0.0411958 0.0121362 -0.0224173 0.000576736 -0.010944 -0.039751 0.071403 0.0220197 0.00361724 -0.0400292 0.00547573 -0.0604091 0.0125832 0.0535531 0.0975495 -0.0254627 -0.040234 -0.0463058 -0.00956531 0.0225955 0.0214078 -0.0211112 -0.080552 0.0537157 0.0385543 0.0383484 0.0261744 -0.0116442 0.00552285 0.0427264 0.00533526 -0.0460944 0.0243154 0.137669 0.0396684 0.0224674 0.0646586 -0.077413 0.014255 -0.0213892 0.00516918 -0.0129285 0.0760216 0.0350834 0.0664927 0.00992462 -0.0344556 -0.0281652 -0.0377439 0.0140982 0.0497349 0.0478302 0.0120804 0.0240211 0.106624 0.0726321 0.0597839 0.0276357 0.0541115 0.034535 0.0436844 0.0542779 0.0249741 0.0249172 -0.0213028 -0.0133624 -0.0289441 -0.00711386 0.00749859 0.0699893 0.0747685 0.0589108 0.0605034 0.0206929 0.0153769 -0.0314258 0.0319798 0.168703 0.282686 0.149107 0.131157 -0.00151274 0.0819029 0.0951746 0.0741948 -0.0376723 -0.00644902 -0.0695492 0.019628 0.0500341 -0.015546 -0.00959475 0.0347063 0.0113738 0.0355567 -0.0168124 -0.000491528 0.00351533 0.0539628 0.0161282 0.0761934 0.0332134 0.118589 0.255311 0.334323 0.381198 0.364198 0.449602 0.124377 -0.0980178 -0.173294 0.0143145 -0.0202076 -0.214851 -0.202298 -0.13027 -0.0618623 0.0253694 0.0314579 0.0201297 0.0392474 0.0186759 -0.00412532 0.00313557 0.0874612 0.162217 0.239458 0.201596 0.220952 0.158994 0.0535904 0.152217 -0.11059 -0.274569 0.0076159 -0.170663 0.0465327 -0.0762027 -0.163552 -0.124509 -0.317479 -0.2454 -0.332522 -0.226283 -0.0731714 0.0592259 0.065808 0.0158358 0.0259797 -0.000232304 -0.0267797 0.0506125 0.188197 0.336442 0.417099 0.457427 0.30095 -0.0139226 -0.0567264 -0.418957 -0.301376 -0.0975541 -0.332188 -0.402957 -0.417098 -0.098379 -0.0437175 -0.179689 -0.0782135 0.00642208 0.0193563 0.14135 0.0435861 -0.115398 -0.032005 -0.037692 -0.00215862 -0.0596653 0.00264255 0.0616673 0.233163 0.375562 0.368126 0.27424 0.104901 -0.0211557 -0.409036 -0.268919 -0.340595 -0.246448 -0.569717 -0.466061 -0.370621 -0.123142 -0.155586 -0.174242 -0.163641 -0.161111 0.0745269 0.168921 0.0113862 -0.0265499 -0.0584063 -0.0233901 -0.00237937 -0.0615951 -0.0577171 0.113777 0.247839 0.166457 0.254169 0.258976 0.136151 -0.0714086 -0.241111 -0.321803 -0.199239 -0.124926 -0.254739 0.101984 0.113991 0.112772 0.242358 0.348366 0.16891 0.105317 0.269016 0.331797 0.10127 0.00442217 -0.0189056 0.0146483 -0.0515819 0.0150509 -0.0222638 0.00903865 0.11719 0.049258 0.0346646 0.0949462 0.238749 0.0159159 -0.162428 -0.637209 -0.197741 0.261129 0.236594 0.512742 0.650833 0.503302 0.714487 0.948312 0.663309 0.659116 0.726411 0.540716 0.279987 0.0948533 0.0200743 -0.0207423 0.0174824 -0.00150776 0.0222917 -0.0311697 0.0911054 -0.0434717 -0.125348 0.0515891 0.141289 -0.0718191 -0.207931 -0.33024 0.250922 0.442145 0.918135 0.9278 0.724943 0.764941 0.592242 1.01017 0.767406 0.81339 0.738436 0.688648 0.359287 0.110142 0.0498926 0.0173648 0.0383561 -0.00948771 -0.00830686 -0.024037 0.0408715 -0.085793 -0.0442529 -0.0255693 0.0807022 -0.150256 0.111329 0.1191 0.643904 0.680301 0.509907 0.431697 0.060945 0.169162 -0.169971 -0.0183321 0.196462 0.413943 0.44383 0.503807 0.326371 0.0781558 0.0237586 0.0231348 -0.0118424 0.0454407 -0.0217168 -0.000155177 -0.0807987 -0.0593086 0.172443 0.126858 -0.316719 -0.179573 0.202046 0.0502427 0.663097 0.519482 0.269029 0.174105 0.310989 0.0822137 -0.208376 -0.0779451 -0.297775 0.0855188 0.344227 0.410548 0.264506 0.0864871 0.0114801 -0.0639361 -0.00923181 -0.0262341 0.0541466 0.0277781 -0.0756719 0.026013 0.201566 0.0742816 -0.0419198 -0.0241864 -0.434875 -0.298171 0.241929 0.284252 0.25643 0.35964 0.29658 0.328171 0.311726 0.0618193 -0.460619 -0.0475146 0.250722 0.327111 0.0750399 0.0286733 0.0674097 -0.0421099 -0.0477038 0.0346272 0.0730127 0.00746724 0.0622613 0.152298 0.255464 0.111656 -0.153735 -0.369096 -0.57381 -0.0759219 0.428958 0.386389 0.0884679 0.271679 0.105026 0.276445 0.0737224 -0.261693 -0.468941 0.148202 0.21292 0.252291 0.122811 0.00218147 -0.0483875 0.0360121 -0.020979 0.0275304 0.0871221 -0.0104523 -0.0262312 0.0445308 0.232318 0.134769 -0.233805 -0.422942 -0.336029 0.0332373 0.69125 0.633482 0.306414 0.237596 0.00692753 0.0980302 -0.0472428 -0.0514131 -0.100426 0.166375 0.413591 0.236543 0.0494149 0.0483585 -0.0285875 -0.0569097 -0.0576816 0.0463009 0.00482833 -0.0840243 -0.142733 0.00577189 0.146002 0.205209 -0.184589 -0.0990045 0.152776 0.341584 0.992346 0.65262 0.0053531 0.18875 0.0591777 0.0133461 0.0834422 0.142857 0.125648 0.258818 0.360201 0.293315 0.0194742 -0.0422659 -0.0587863 -0.0999075 0.0356128 -0.0137134 0.0526997 -0.000750233 -0.170788 -0.107346 -0.237234 -0.0763049 -0.215854 0.342784 0.53257 1.03586 1.16869 0.86601 0.25977 -0.0730531 0.0999646 -0.141875 -0.0409903 0.0849351 0.0605709 0.157777 0.319876 0.242104 -0.0498915 -0.0860589 -0.03484 -0.0471229 0.0344878 -0.0481699 0.0463139 0.0424395 -0.150936 -0.123389 -0.0508006 -0.298064 -0.358413 0.303261 0.54417 0.790059 0.893874 0.474349 -0.397914 -0.312494 -0.126807 -0.173057 0.0076897 -0.0101112 -0.00288614 0.119157 0.319689 0.176374 0.00319644 -0.0365528 -0.0906271 -0.0354256 -0.019856 0.0539404 0.0135091 0.0287822 -0.188004 -0.0511527 0.0134637 -0.156425 -0.41666 -0.265621 0.123161 0.264673 0.568062 0.372016 -0.194756 -0.474315 -0.212473 -0.095364 -0.12821 -0.236062 -0.211021 0.0182043 0.0553776 0.0898864 0.122129 -0.0808318 0.000122752 0.0626865 -0.0671354 0.00756256 0.0322173 0.00988989 -0.176714 -0.212325 -0.00356818 0.108278 -0.200495 -0.186713 -0.0138937 0.0745034 0.152588 0.480063 -0.0606909 -0.459459 -0.497129 -0.355158 -0.336041 -0.415553 -0.28262 -0.157196 -0.0642099 -0.0166274 0.0178562 -0.081703 -0.0652778 -0.0307797 -0.0336739 -0.0318694 0.0626645 -0.0430443 -0.163189 -0.202546 -0.191731 0.0700434 -0.0249217 -0.342264 -0.258838 -0.185705 -0.0698259 0.1915 -0.0898617 -0.067776 -0.259851 -0.257924 -0.363121 -0.351037 -0.24662 -0.17208 -0.228903 -0.230712 -0.106048 -0.0603053 0.0328778 -0.0230966 0.047433 -0.0507052 0.0633436 0.0249996 -0.139722 -0.0322646 -0.0724494 -0.0686398 -0.0127522 -0.111355 -0.317419 -0.212026 -0.0706134 0.128317 0.0434881 0.162808 0.0631415 -0.24475 -0.503388 -0.251788 -0.236106 -0.0382663 -0.165251 -0.26233 0.00816463 0.00822684 -0.0508348 -0.0301902 -0.0296408 -0.00509928 0.0394706 0.103184 -0.012357 -0.0889425 -0.0748594 0.135708 0.359623 0.42581 0.184113 0.217257 0.138251 0.160709 0.265836 0.549174 0.292665 0.212594 0.0460489 -0.18372 -0.24866 -0.149582 -0.124959 -0.0785701 -0.0400392 0.0620417 0.0556446 0.00638392 0.0185347 0.0477763 -0.019716 0.108479 0.0504691 -0.00260373 0.0195228 0.299961 0.198115 0.211164 0.415011 0.36528 0.201881 0.244029 0.451391 0.292246 0.264239 0.336273 0.0491015 -0.0471231 -0.201065 -0.0978439 -0.124661 -0.00203306 -0.0957112 0.0116011 -0.0130652 -0.00653627 0.0705634 -0.00926573 -0.00233764 0.0386639 0.00343813 0.0039522 0.0134806 0.113867 0.117256 0.241917 0.353775 0.356955 0.152007 0.138593 0.348671 0.243618 0.181407 -0.0756913 -0.231041 0.0129362 -0.159283 -0.154879 0.0431669 0.00252154 0.0247836 -0.00195226 0.0703782 0.0224668 0.0179582 0.0342525 0.0254866 -0.0180125 -0.0228451 0.0111761 -0.0547448 -0.013618 -0.00095671 0.0196241 0.0741028 0.0594665 -0.0998462 0.0256953 0.0115219 -0.0442228 -0.010614 0.053534 -0.138564 -0.0352899 -0.0771605 -0.144264 0.00735756 0.0378986 0.0236966 -0.0254352 0.0253477 0.037166 0.0210615 0.0571107 0.0649678 -0.0288183 0.0332532 -0.0442547 0.050524 -0.0100008 -0.0777285 0.0387461 0.0281108 -0.0127063 -0.0290516 -0.0261168 -0.0457014 0.0407438 0.00438288 0.0238195 0.0264332 -0.0505894 0.00254904 -0.0632424 -0.0274322 -0.0722538 -0.0125802 -0.0302275 0.00210903 0.0142741 
0.0581261 -0.0499214 -0.0306726 -0.0259666 0.0198138 0.00565849 -0.0358669 0.000574791 0.021084 0.0571999 0.0439133 0.0402511 -0.00633909 -0.00638951 -0.028106 0.0360752 0.0249956 -0.0817615 0.0307684 -0.00993178 0.0362097 0.0789094 -0.0138635 -0.0438556 0.0253285 0.0287404 -0.0422412 -0.0365003 0.044807 0.0177232 0.0117232 0.0128632 0.0106523 -0.0407168 -0.00864422 0.0169621 -0.00552376 -0.0221042 0.00448943 0.0263667 0.0128945 0.0169062 -0.0228657 -0.0773983 0.0294244 -0.00730543 0.00403643 -0.0292415 -0.00102649 -0.0311674 0.0670573 0.000705891 0.0285215 1.90138e-05 -0.0199215 0.0431689 0.026204 0.0241329 -0.00509352 -0.0235953 0.0152138 0.0361314 -0.0626433 0.018883 -0.0367879 0.0288918 -0.0173446 -0.0706856 0.0097988 -0.0303855 -0.0254764 -0.00980181 -0.0420973 -0.0840084 -0.0691339 -0.0218101 -0.0282493 -0.0383031 0.0348732 0.0241316 -0.0153038 -0.0529559 0.00525726 0.0039934 -0.0139856 0.037802 0.0368323 0.0210539 -0.000939338 0.0116957 0.0160056 -0.0912865 -0.0032645 -0.13278 -0.0541885 -0.0240235 -0.0469561 -0.129553 -0.175404 -0.109188 -0.144854 0.030198 0.0716135 0.027517 0.0480803 -0.0437609 -0.0419296 -0.00799232 -0.0350977 -0.0328175 0.0574088 0.017433 0.0855551 0.0729653 0.00167772 0.0314999 0.00553576 0.0415294 -0.0675323 0.0309317 -0.0114822 -0.0997259 -0.142895 -0.105894 -0.108675 -0.100984 -0.0815518 -0.0935418 -0.079786 -0.094893 -0.073887 0.0260518 -0.0555514 0.0109795 -0.0182161 0.0124914 -0.0610934 -0.00509003 0.00602457 0.0231386 -0.0477971 -0.00505043 0.0445042 0.0805552 -0.0305691 0.0447228 -0.00248914 -0.0586637 -0.0553263 -0.0609952 -0.183523 -0.224378 -0.292449 -0.23064 -0.180937 -0.121277 -0.184867 -0.177697 -0.0496695 -0.0892733 -0.174482 -0.145281 -0.0689445 -0.0265408 -0.096833 -0.0418437 -0.0176815 -0.038438 -0.0139763 -0.000868504 0.00158637 0.00998903 0.0199174 0.076301 -0.090219 -0.056475 -0.123646 -0.261079 -0.300412 -0.462211 -0.465323 -0.285349 -0.041174 -0.0692814 0.275612 0.434421 0.521007 0.0550279 -0.147429 -0.0636194 -0.0328599 -0.13821 -0.14952 -0.0209452 0.0313859 0.0498548 0.0333315 0.0628927 0.00193485 0.0165716 0.00921805 -0.000673157 -0.109106 -0.115722 -0.248992 -0.356594 -0.481825 -0.559989 -0.316765 -0.0216313 -0.182797 -0.099696 0.258034 0.233045 0.352653 0.48354 0.222955 0.240288 0.0243844 -0.119824 -0.152929 -0.0504345 0.0720327 0.0251955 0.000736495 -0.0879277 0.00221618 -0.0126102 -0.0119397 -0.0581593 -0.0767138 -0.161391 -0.300324 -0.320551 -0.1279 -0.188955 -0.399854 -0.246324 -0.487148 -0.39835 -0.10055 0.0709652 0.404357 0.407853 -0.200793 -0.0569504 0.0206441 -0.0614827 -0.129075 -0.100448 0.0035364 0.0601255 -0.0395108 0.0434469 -0.0647249 0.0747869 -0.0234499 -0.11915 -0.158803 -0.2297 -0.190259 -0.156213 0.170145 -0.0595979 0.022551 -0.312687 -0.704072 -0.54662 -0.40278 -0.512713 -0.150548 0.057328 -0.137383 -0.0771403 0.0890727 -0.0146155 -0.000190484 -0.000342364 0.0144396 0.0380414 -0.059957 0.029787 -0.0480174 -0.0768101 0.0056623 -0.0187052 -0.088398 -0.243292 -0.0146803 0.0886701 0.15402 0.313914 -0.0301151 -0.329263 -0.398376 -0.249583 -0.336544 -0.562579 -0.176728 -0.194623 -0.27233 0.00504116 0.087612 0.102608 0.0960823 0.050464 -0.00891592 -0.0175287 0.00493292 0.00618032 -0.0955123 -0.0205083 0.0210825 -0.00989482 -0.142815 -0.164639 0.0174605 -0.0332417 0.255839 0.183424 0.056168 0.200078 0.38546 0.268862 -0.131184 -0.167994 0.288852 -0.0707888 0.0105893 0.0287496 0.117826 0.0451423 0.112752 0.0588065 -0.00120974 0.00567861 -0.0341916 0.0455331 -0.00666091 -0.0336865 0.0510121 -0.094234 -0.120218 -0.0423466 -0.138847 0.177147 0.0653729 0.0475085 -0.0058534 0.428282 0.565575 0.388628 0.122681 -0.0504646 -0.0177606 -0.170111 -0.125982 -0.0407003 -0.114321 -0.106573 -0.120898 -0.0199607 -0.012258 -0.00113578 -0.0276328 -0.0268226 -0.0571228 0.0017248 -0.0107273 -0.104168 -0.0776892 -0.0100361 -0.071343 0.160685 0.0552998 0.0650313 0.0884731 0.544033 0.37871 0.288459 0.259135 -0.0899221 -0.508676 -0.431018 -0.240569 -0.108805 -0.124103 -0.232499 -0.165922 -0.0758827 -0.0427607 0.0273161 0.00293021 0.0366997 0.0116566 -0.0522613 -0.0102193 -0.108042 -0.117049 -0.262042 -0.0759428 0.323627 0.221151 0.0898198 0.344888 0.393576 0.195795 0.305394 0.324356 -0.279345 -0.533395 -0.47819 -0.29286 -0.143864 -0.119654 -0.0855516 -0.0396985 -0.0320562 0.00483519 -0.0412619 -0.00213742 0.0546456 0.0435102 0.0426039 0.0171358 -0.0641109 -0.256501 -0.203824 0.0599917 0.241813 0.239193 0.154652 0.229306 0.0596365 -0.106835 0.208384 0.328377 -0.0886045 -0.536796 -0.674393 -0.360925 -0.0132331 0.0194118 0.0216981 0.00292611 -0.0174542 -0.0353823 0.0434425 -0.00669364 0.0606323 0.0158239 -0.0612042 -0.0235334 -0.0819529 -0.231009 -0.327602 -0.187205 -0.0922544 -0.0658339 -0.127939 -0.318241 -0.56966 -0.195119 0.149911 0.10579 -0.539017 -0.723632 -0.575146 -0.220446 -0.0308056 -0.0159025 0.0288462 -0.0330688 -0.0488753 -0.0114487 0.0398436 -0.0445504 0.0409566 -0.043503 -0.0134293 -0.00808845 -0.122872 -0.397987 -0.407091 -0.534069 -0.516761 -0.428427 -0.612741 -0.496827 -0.127089 0.201102 0.408569 -0.177811 -0.746131 -0.57437 -0.342337 -0.068979 0.055201 -0.0341103 -0.0729006 -0.0451873 -0.0595383 -0.0021421 0.0254647 0.0111133 0.0293874 0.011063 0.000325902 0.068895 -0.121665 -0.40466 -0.597971 -0.695549 -0.726022 -0.5826 -0.489723 -0.491188 0.141797 0.360541 0.00427961 -0.584866 -0.549589 -0.476795 -0.218269 -0.0910443 0.0311744 -0.0133435 -0.119566 -0.104954 -0.000246132 -0.0651626 0.00512144 -0.0334711 -0.0363229 0.0431274 0.0445732 -0.0268805 -0.058911 -0.242749 -0.452644 -0.529307 -0.453501 -0.292901 -0.0983233 0.11366 0.403823 0.363832 -0.563315 -0.716263 -0.524536 -0.392455 -0.206526 -0.0796005 0.0375728 -0.0576376 -0.0891878 -0.0845436 -0.0554875 0.0414898 0.0206596 -0.0104004 0.00272732 -0.0185048 0.18514 0.119918 0.0158915 -0.185498 -0.506472 -0.234999 -0.18043 -0.137061 0.12513 0.109538 0.239562 -0.124836 -0.870271 -0.54224 -0.443548 -0.337128 -0.226252 -0.115934 -0.0872477 -0.0582175 0.0107439 -0.0010718 -0.0163592 -0.035298 0.0146187 -0.028503 0.0166021 -0.0391851 0.0479981 0.0941986 0.0507509 -0.0675834 -0.247153 -0.0756517 -0.0708993 0.252096 -0.101751 -0.0725034 -0.0694201 -0.605073 -0.652111 -0.458421 -0.455319 -0.274622 -0.221472 -0.0578998 -0.0826903 -0.067867 0.00649275 0.0128032 0.0425883 -0.00577382 0.00523533 -0.0100366 -0.0286455 -0.00704691 -0.0288042 0.0308418 0.0119521 0.0170654 -0.0168795 0.213961 0.296226 0.159299 -0.255547 -0.49188 -0.527706 -0.669343 -0.501439 -0.425469 -0.332316 -0.203949 -0.0843726 -0.00129495 -0.0215185 -0.0209661 0.0190979 -0.00596451 0.0181708 0.0129229 -0.0307404 0.00813516 -0.0189308 0.0119898 0.0249044 0.15465 0.12923 -0.0595659 0.0306357 0.266074 0.159732 -0.112126 -0.449008 -0.434455 -0.573397 -0.772006 -0.432454 -0.330465 -0.171612 -0.237138 -0.0631108 0.102881 0.0473012 0.0240273 -0.0181585 -0.034163 -0.0353877 0.0320503 0.0111331 0.0307794 -0.0203431 -0.00499367 0.0342071 0.11089 0.112821 -0.0662753 0.137876 0.37007 0.166036 -0.0697507 -0.306108 -0.160431 -0.317606 -0.614231 -0.422759 -0.363961 -0.0384877 -0.0157345 0.0406314 0.118754 -0.0143711 0.00255682 -0.0153832 0.0182292 0.0638087 0.0152078 0.0503584 -0.0765458 -0.0336465 -0.00898135 0.0341194 0.0638409 0.177415 -0.0217937 0.0912964 0.260734 0.230872 0.101697 0.0141358 0.0844571 -0.0792848 -0.210784 -0.377041 -0.0531 0.0537003 0.121625 0.117857 0.031783 0.0212714 0.0233894 0.0249696 0.00764447 0.00103035 0.0123675 -0.036384 0.00749218 -0.0089262 -0.0105221 0.00586632 0.0649577 0.0723254 0.0423735 0.0965409 0.159305 0.13104 0.0826301 0.0224281 0.156961 0.19348 0.131789 0.00919326 0.0421108 0.0522561 0.0627184 0.0627039 -0.00325242 -0.0413841 -0.028008 -0.0393587 -0.0352639 -0.055374 -0.00412055 0.00169237 0.0125543 0.0224218 0.0278705 -0.00652606 -0.0223407 -0.0126372 -0.0256112 0.0197705 0.0323613 0.0244324 -0.0156894 0.0537042 0.0472924 0.0208157 -0.0410404 0.096262 0.0645462 0.0332678 0.0890777 0.0231114 0.00913498 -0.0165813 -0.0443464 0.00144933 0.0536852 -0.0145186 -0.0074174 -0.0021485 
-0.0354599 -0.00497112 -0.0509121 -0.0129304 0.0109875 0.0463511 -0.038496 0.00595817 0.013209 -0.0299613 0.0431284 -0.0724854 0.0366176 -0.0177939 -0.0111856 0.0345909 0.0104594 -0.0470427 -0.00819211 0.0386201 0.0383859 -0.0196642 -0.00865588 -0.0453461 0.0254671 0.0126885 -0.0101627 0.0252559 -0.0166174 0.0239486 0.0187173 0.00666356 0.0648699 0.0111958 -0.0300797 0.00875631 -0.0215555 0.0862405 0.00648901 0.000810825 -0.0139226 0.0537125 -0.033833 -0.0267894 -0.0574448 -0.022239 0.0596365 -0.00522101 -0.0316647 0.0363665 0.0549576 -0.0123429 -0.0290597 -0.0259105 0.00106364 0.0102577 0.028529 -0.0251439 0.0201918 0.00177817 -0.0152003 0.0615464 -0.0314942 -0.0645457 -0.0118762 -0.034622 0.0014889 -0.00856054 -0.0486737 -0.0525164 -0.0761917 -0.00496208 -0.0431194 0.0506953 0.0805807 0.0130536 0.0483072 -0.0701879 0.0050622 0.0306245 0.0434448 0.0230893 0.0251786 0.0591099 -0.0201241 -0.00182637 -0.034077 0.00156343 0.0342729 -0.0301003 -0.0806156 -0.0645939 0.0247363 0.0267896 -0.0537779 -0.0240923 -0.050456 -0.0601379 -0.06601 -0.217326 -0.121476 -0.0852425 -0.0349164 -0.101292 -0.00975912 0.00283568 -0.0067356 0.0367128 0.0386494 -0.0462665 -0.0129617 0.0101237 -0.0263427 -0.0131967 0.0397257 0.0315444 -0.00928779 0.0435562 0.0178007 -0.0606992 0.00478516 -0.164558 -0.0562334 0.0453019 -0.298206 -0.450458 -0.588167 -0.562468 -0.731423 -0.489704 -0.189473 -0.157639 -0.156643 -0.234091 -0.242107 -0.0688057 -0.00911768 0.0104764 -0.0516597 -0.0462093 -0.0315303 0.026079 -0.0297037 0.0718246 0.104348 0.17228 0.268646 0.235949 0.183223 0.063586 -0.0754838 -0.0184499 -0.32584 -0.401737 -0.581903 -0.520342 -0.753254 -0.814446 -0.315281 -0.374825 -0.306634 -0.370837 -0.419847 -0.258796 0.0244257 -0.0188427 -0.00221186 -0.0070524 0.0725203 0.0176176 -0.0198906 0.0702532 0.196169 0.270515 0.447475 0.440334 0.630095 0.383254 -0.0388712 0.0292978 0.110356 0.400956 0.210348 0.275685 0.396886 0.456729 0.139886 -0.320675 -0.26902 -0.276714 -0.6103 -0.443099 -0.175021 -0.0375546 0.00737761 0.0179183 0.00751963 -0.0323292 0.028913 0.111655 0.36864 0.377269 0.590682 0.429787 0.413358 0.253512 -0.0411324 -0.175604 0.27284 0.468383 0.0947658 0.233428 0.383636 0.330498 -0.0758677 -0.338917 -0.185569 -0.410383 -0.665448 -0.562193 -0.364594 -0.164198 -0.0592434 0.00463487 -0.0165026 -0.002938 -0.00771749 0.155168 0.500096 0.258221 0.307836 0.274983 0.374085 0.377455 0.37487 0.283883 0.0850076 -0.0309446 -0.145942 -0.139509 -0.0637365 -0.0823393 -0.0254895 -0.187728 -0.255381 -0.125581 -0.318451 -0.539732 -0.416973 -0.210425 -0.0570727 0.026109 -0.0413075 0.0143966 0.00450684 0.208479 0.45337 0.176662 0.0697401 0.247203 0.574424 0.469335 0.727368 0.321189 0.279375 -0.293576 0.0523019 0.439312 0.29367 -0.249432 -0.275611 -0.143218 -0.0916592 -0.438945 -0.228062 -0.412274 -0.327428 -0.123683 -0.0337242 0.00368307 0.057664 -0.0338296 0.0816379 0.297467 0.288078 0.150587 0.0469059 0.0545545 0.239613 0.0200125 0.166338 0.128268 -0.25665 -0.211384 0.0169002 -0.134422 0.25918 -0.00607097 -0.404719 0.308793 0.135096 -0.102634 -0.141437 -0.181958 -0.163378 -0.0408811 0.0524273 -0.0916858 0.0394387 -0.0163264 0.0644026 0.226765 0.195269 -0.110676 -0.181195 -0.323579 -0.359888 -0.682157 -0.656759 -0.109047 -0.352552 0.145764 0.229155 0.325135 0.484942 0.594507 0.406768 0.478811 0.411794 0.0439682 0.0904906 -0.050462 -0.0971219 0.0132357 -0.0194229 0.0410942 0.0529198 0.0417553 0.0791224 0.0360093 0.0426016 -0.136785 -0.476557 -0.459721 -0.679984 -0.638994 -0.354333 -0.466549 -0.471929 0.0591337 0.480073 0.476344 0.847472 0.813896 0.831032 0.486371 0.117229 -0.168185 0.0895329 -0.0316055 -0.133357 0.0103136 -0.0635967 -0.0386037 0.0200436 0.0376793 0.0851298 0.00816269 -0.0971503 -0.374223 -0.594351 -0.411729 -0.42886 -0.197485 -0.159825 -0.20701 -0.0775162 0.314516 0.406137 -0.00367337 0.200317 0.459361 0.441676 0.370964 0.0798711 -0.0294362 -0.163032 -0.108468 -0.0631664 0.00201294 -0.054054 -0.0415876 -0.00590441 -0.00896201 0.0349491 -0.00952153 -0.120321 -0.385734 -0.692694 -0.598116 -0.23545 0.421218 0.381022 0.00983475 0.273122 0.362313 -0.000344658 0.134911 -0.0621327 -0.00684793 0.244509 0.398352 0.262748 0.238652 -0.0997087 -0.0779876 -0.131806 0.0222328 0.0282034 0.0363711 0.0315225 0.0591588 -0.00197063 -0.0988661 -0.142556 -0.297323 -0.431405 -0.593803 -0.174499 0.184335 0.344684 0.693822 0.432525 0.247872 0.510068 0.581344 -0.0514766 0.423935 0.336297 0.141183 0.375657 0.230875 0.197272 0.0150263 0.0471308 0.0645278 -0.0230443 0.00396676 0.0229047 -0.0435537 -0.0203248 0.0258581 -0.16829 -0.375472 -0.418411 -0.404417 -0.431407 0.174977 0.546226 0.543727 0.450445 0.063812 0.0670053 0.101944 -0.0934927 0.255237 0.352164 -0.0244993 0.115987 0.214205 0.231285 0.123846 -0.0584558 -0.0762471 -0.0159201 -0.0541678 0.0028547 0.0497552 0.0119988 0.0666171 -0.141743 -0.333707 -0.528465 -0.553562 -0.702045 -0.646431 -0.606605 -0.395573 -0.0629234 0.0777429 -0.380579 0.0989502 -0.0563171 0.0908476 0.223417 -0.296138 -0.188547 0.0197584 0.054314 0.00307114 -0.147762 -0.155598 -0.044927 0.0133361 -0.0182834 0.0307683 0.0271535 0.0318692 -0.062176 -0.320702 -0.61175 -1.10291 -1.26521 -1.37118 -1.52395 -1.22464 -0.854835 -0.808837 -0.491666 -0.138077 -0.0847402 -0.285142 -0.360684 -0.297801 -0.323982 0.0530238 0.140432 -0.226003 -0.280085 -0.0279267 0.0179723 -0.00656784 0.0307059 0.0217131 0.040915 0.0626629 -0.0188683 -0.337673 -0.648095 -1.09525 -1.33007 -1.28418 -1.81446 -1.44446 -1.18579 -0.816375 -0.249715 -0.32595 -0.253283 -0.461969 -0.332689 -0.270826 -0.0886745 0.00833452 -0.127812 -0.278274 -0.174083 -0.0252392 0.0514572 -0.0291892 0.0138336 -0.00141952 0.114151 0.105823 0.0809372 -0.249252 -0.423526 -0.691087 -0.818875 -0.534362 -0.796917 -0.946661 -0.809591 -0.187395 -0.103679 -0.441147 -0.347227 -0.371807 -0.249423 -0.209779 -0.0906625 -0.321861 -0.412489 -0.322142 -0.133202 -0.0112133 0.0193834 -0.0872962 -0.0269008 0.0268334 0.0431478 0.142225 0.211277 -0.00369674 -0.134886 -0.355992 -0.475994 -0.423375 0.0498825 -0.012853 0.156976 0.0612587 -0.394357 -0.444341 0.0139213 -0.395064 -0.265152 -0.368731 -0.4097 -0.459934 -0.398604 -0.315484 -0.0397463 0.0161661 -0.023897 -0.0173587 0.0159881 0.00589372 0.0358698 0.0879407 0.146002 0.181671 0.0975267 0.00271923 -0.140232 -0.361186 0.36481 0.244474 0.0184002 -0.374006 -0.460817 -0.381454 -0.302061 -0.398313 -0.589041 -0.737388 -0.512809 -0.548811 -0.334762 -0.125045 0.00866959 0.017682 -0.0254272 -0.0655737 -0.0640127 0.0505668 0.0156438 0.0608486 0.23516 0.196657 0.34373 0.469631 0.27124 -0.0409739 0.187263 0.148586 -0.0817539 -0.163535 -0.424043 -0.325654 -0.59406 -0.672727 -0.677783 -0.797733 -0.676063 -0.511109 -0.210345 -0.0497456 0.0153525 -0.12123 -0.0237052 -0.0234329 0.0198204 0.0439627 -0.0396925 0.11508 0.16813 0.309979 0.36297 0.471234 0.486661 0.350902 0.278737 0.107087 -0.162175 -0.0425189 -0.219512 -0.352532 -0.367631 -0.439307 -0.618374 -0.52215 -0.250375 -0.114182 -0.124754 0.0656236 -0.112085 -0.0250079 0.043172 0.00541071 0.00187228 -0.0182272 -0.0588579 -0.0811043 0.0813967 0.170701 0.337778 0.477 0.559963 0.543649 0.345561 0.201465 0.331443 0.101926 -0.0697192 -0.0284064 0.263601 0.171334 0.214264 0.152848 0.104429 0.0437812 -0.0142162 -0.0184345 0.0209333 0.0362124 0.0724967 -0.0320822 -0.00508316 0.0234488 -0.0465783 -0.0675589 0.00837307 0.101898 0.105308 0.147109 0.194987 0.249474 0.241448 0.378123 0.394664 0.404266 0.420671 0.352572 0.310645 0.30858 0.299269 0.0914285 0.128219 0.0658163 0.0355658 -0.080018 -0.0174617 0.0151937 -0.0385947 0.0371953 -0.0218555 -0.00497596 -0.0628135 0.0125729 0.00933623 -0.00715523 -0.051716 0.0724444 0.0774828 0.0584023 -0.0255682 -0.0274379 0.0918584 0.0454746 0.0580322 0.014694 -0.0398869 0.115209 0.116639 0.0052836 0.00110657 0.0422106 0.0458804 -0.0137454 -0.0307575 0.00283153 -0.0630812 -0.0597608 
0.0481771 0.0165889 -0.00234672 -0.0564861 0.0336452 0.0405793 0.0339169 -0.0102325 -0.0294641 0.0335412 0.0444704 0.0075107 0.00218203 -0.0515301 0.04812 -0.0437964 0.0393397 0.0481723 -0.0643674 -0.0409306 0.0145475 -0.0342658 0.0785449 0.019521 0.0055749 0.00241316 0.0717793 0.000447079 -0.0505568 0.0202375 0.00784433 -0.0129509 0.029204 0.00323277 0.0755463 0.0397232 -0.0832541 -0.0696952 -0.016377 -0.0234469 -0.0334047 0.0446667 -0.0247234 -0.00729171 0.0644106 0.0406023 0.0126478 -0.00961593 -0.0161441 -0.0172576 -0.047805 -0.00734315 -0.0241662 0.0560061 -0.0119633 0.00958209 0.025856 -0.0537994 -0.0281981 -0.0759447 -0.0267642 0.0450265 -0.04873 -0.0453076 0.0827681 0.0334904 0.00922778 0.0201356 0.040923 -0.051497 -0.0421197 -0.0602878 -0.0864984 -0.07944 -0.104591 -0.00996194 -0.118253 -0.0168975 -0.0273887 -0.011007 0.0280854 0.0293793 -0.024381 -0.0360724 0.0615713 -0.00135207 0.135506 0.0313126 -0.032764 -0.0643864 -0.0406651 -0.00223164 -0.0162898 0.137508 0.0241223 0.00111271 -0.0233808 -0.254925 -0.338781 -0.390094 -0.131905 -0.146773 -0.241191 -0.222463 -0.1154 -0.0461576 0.0119406 -0.0213721 -0.0400489 0.0139973 -0.0174095 0.0463889 0.017721 -0.0317226 0.0440767 -0.00265951 -0.0692557 -0.129812 -0.0190337 -0.0523088 0.0768229 0.2394 0.266098 0.018185 -0.0403055 -0.133411 -0.210946 -0.379615 -0.230705 -0.0523069 -0.064111 -0.0302647 -0.0400757 -0.0580783 -0.0218746 0.0207944 -0.00288546 0.0453138 -0.0193583 -0.00164112 -0.0157521 0.0186663 -0.046427 -0.0766476 -0.0488899 -0.095972 -0.120358 -0.0266478 0.122446 0.0505367 0.156801 0.187606 0.167471 -0.0137968 -0.167158 -0.275905 -0.122092 -0.00854816 -0.0917501 0.00144959 -0.111104 -0.0521863 0.0343795 0.0225551 0.0483316 0.0861345 0.0559405 0.0258022 -0.021692 0.0113339 0.000247089 -0.00212466 -0.0685928 -0.245392 -0.219822 -0.107519 -0.0418875 0.114381 -0.0286204 0.0501472 0.0961249 0.146435 0.0392752 0.0211643 -0.126589 -0.184969 -0.159712 0.0611198 -0.197791 -0.107542 -0.0828476 0.0101849 0.0457133 -0.0324071 0.0573009 0.0584632 0.00357664 0.0234542 -0.00857598 -0.0529991 -0.146423 -0.235884 -0.279819 -0.0935667 0.0503692 0.0946136 0.289562 0.325934 0.0868432 0.159707 -0.297634 -0.271553 0.0298083 -0.062445 -0.0366703 0.0955735 -0.105738 -0.178623 -0.0565582 -0.0603591 -0.0904958 -0.0345749 0.0271398 -0.0593428 -0.0412006 -0.0115397 -0.015479 -0.0373813 -0.10544 -0.00546773 -0.0380141 -0.0164928 -0.00136945 -0.102769 0.25554 0.38887 0.231244 -0.0592962 -0.143882 -0.12186 -0.163556 0.223824 -0.173007 0.110929 -0.105467 -0.201121 -0.0348163 0.052036 -0.0901215 -0.0495483 0.0695692 0.0554411 -0.00448043 -0.0280851 -0.0290041 -0.000863383 -0.0446691 -0.0286338 -0.0668607 -0.14666 -0.258471 -0.032031 0.067227 0.263206 0.509145 0.0602651 -0.175076 0.0127554 -0.435978 -0.168604 -0.222662 -0.096984 -0.0437825 -0.0822834 -0.00144701 -0.0184755 0.00078025 -0.0500892 0.0212525 -0.00216643 -0.00931306 0.010244 -0.0149443 -0.0911276 -0.107313 -0.0237806 -0.0623134 -0.08886 -0.0061593 0.0109573 0.249223 0.275769 0.466429 0.0252857 0.0929044 0.0349545 -0.185232 -0.225907 -0.230303 -0.101151 -0.101538 0.0870242 -0.16194 -0.118989 -0.000538669 -0.0163449 -0.0343337 -0.0248195 -0.00309915 0.0215936 -0.0780448 -0.0448444 -0.065769 -0.0341106 0.0509378 0.031074 0.0319891 -0.0399037 -0.012281 0.377862 0.304565 -0.0562513 0.120581 0.117763 -0.182293 -0.373026 -0.253764 -0.197692 -0.076393 0.00755167 -0.0684872 -0.0945456 0.0516376 0.0209003 0.0256194 0.0854976 0.00227503 -0.0457086 0.0151916 -0.0588768 0.000970553 0.0367791 -0.105787 -0.0318638 -0.0140145 -0.139818 -0.349144 -0.0817343 0.00641914 0.237721 0.271113 0.167616 0.0294436 -0.263295 -0.323245 -0.170155 -0.0041929 -0.0327038 -0.188176 -0.0745208 -0.0308137 0.134057 0.0830803 0.00648661 0.063126 0.0266628 -0.0574588 0.00833752 -0.0213792 -0.13566 -0.317157 -0.383324 -0.378464 -0.303646 -0.574676 -0.580305 -0.28495 0.190065 0.038558 -0.156561 0.0554677 0.041389 -0.198265 -0.225491 -0.159132 -0.134016 -0.197582 -0.17934 0.0494402 0.0611464 0.134876 -0.0376613 0.00797308 0.0125572 0.0510396 0.0243808 -0.0704999 -0.238558 -0.403738 -0.561378 -0.626705 -0.811767 -0.904162 -0.827169 -0.399055 0.217307 0.0921753 -0.034488 0.262064 0.0152218 -0.155175 -0.262072 -0.416052 -0.355728 -0.234763 -0.193717 -0.112284 0.0428343 0.0803194 0.0510985 0.026478 -0.00508145 -0.00422747 -0.0519496 0.00658091 -0.155169 -0.351099 -0.395304 -0.531002 -0.67996 -0.709503 -0.303786 0.253631 0.615667 0.354424 0.356647 0.162932 -0.300106 -0.434791 -0.580826 -0.513277 -0.396401 -0.444389 -0.328979 -0.0340597 0.0294668 0.0180503 -0.0469676 -0.0457705 0.0112665 0.00653004 -0.0893542 -0.144752 -0.205871 -0.335318 -0.411979 -0.417334 -0.287604 0.0646228 0.461993 0.698589 0.532472 0.142118 -0.0541881 -0.0686824 -0.451007 -0.560377 -0.587329 -0.390413 -0.309837 -0.315212 -0.147002 -0.0203873 0.093163 0.0938409 -0.00507734 0.00298768 -0.00274216 -0.0482131 0.0392448 -0.0685811 -0.269086 -0.340915 -0.464741 -0.420774 -0.131052 0.421889 0.763021 0.756639 0.0699861 -0.153857 -0.428994 -0.633717 -0.471471 -0.412618 -0.565479 -0.273042 -0.0887533 -0.0941601 -0.0443408 -0.0282981 0.0467925 0.105815 0.0780123 0.0220343 0.00529446 0.00586128 -0.026859 -0.105576 -0.253352 -0.429148 -0.235607 -0.254162 0.392994 0.651705 0.823787 0.563583 -0.168906 -0.641045 -0.743449 -0.520431 -0.251942 -0.194746 -0.186485 -0.191452 -0.0825867 0.014013 0.227481 0.253153 0.207825 0.103815 0.0336732 -0.0266323 0.0195168 -0.0820302 -0.0977393 -0.0462117 -0.221752 -0.140862 0.0228383 0.0743059 0.470904 0.835054 0.89063 0.392399 -0.225575 -0.703764 -0.317583 0.0551723 -0.0853322 0.0222934 0.0719909 0.0981973 -0.0454821 0.113019 0.361753 0.212717 0.107943 0.0486099 0.0580217 -0.00696033 -0.0546211 -0.0328097 0.00638177 -0.0429936 -0.0959234 0.138946 0.22236 0.335058 0.404056 0.577849 0.860365 0.560399 -0.272158 -0.5664 -0.0726088 0.0615454 0.18834 -0.0842989 0.0250208 -0.0594269 0.0416026 0.116887 0.194282 0.167759 0.110727 0.0385898 0.0565127 0.0299181 -0.0561418 -0.0877815 0.0277963 -0.0573511 -0.102105 -0.0117037 -0.0200706 0.0783531 0.251283 0.217782 0.255951 0.215012 -0.115306 -0.258031 -0.266524 -0.16003 0.0923139 0.00557779 0.237586 -0.0863881 0.0268008 0.106858 0.228259 0.194337 0.0607057 0.00202123 0.0193514 0.0381104 -0.0577631 0.029565 0.0404826 0.0431713 0.114979 -0.0178942 0.106834 0.232376 0.394742 0.16102 0.0854601 -0.153198 -0.266267 -0.228783 -0.413501 -0.253287 0.0444495 0.271302 0.131912 0.0919227 0.219435 0.110863 0.127178 0.0867575 0.0511523 0.0268597 -0.00732441 0.0826998 -0.00473565 0.00232006 -0.0951941 -0.133387 -0.0797934 -0.0879793 -0.136011 -0.0873982 0.250621 0.282148 0.225498 0.0994197 -0.0201839 -0.140986 -0.28922 -0.161297 -0.21666 -0.125716 0.105502 0.140684 0.0981616 0.137309 0.0551371 0.00526333 0.0103648 0.0336661 0.00690093 -0.027815 0.0741298 0.00453652 -0.176798 -0.189056 -0.177314 -0.397569 -0.304082 -0.292259 -0.183179 -0.139081 -0.180066 -0.182735 -0.184257 -0.211357 -0.218547 -0.224517 -0.198546 -0.0541067 -0.0605928 0.00874832 0.0349412 -0.0442534 0.0456923 0.0632519 0.00726402 0.0249394 0.00732121 0.0154376 -0.00627207 -0.030814 -0.0428128 -0.00447182 -0.0731145 -0.0619953 0.0215867 -0.195976 -0.248721 -0.183554 -0.202315 -0.235287 -0.212768 -0.262304 -0.186869 -0.172816 -0.183948 -0.179236 -0.115072 -0.0292112 -0.0167296 -0.0542752 -0.0338563 0.0146645 -0.00387256 0.0470487 0.0298368 -0.0500553 -0.068608 0.054985 -0.0426531 -0.0310008 -0.074995 0.0704512 -0.00859432 0.0108383 -0.0127695 0.000517307 -0.0161803 -0.0794594 -0.00842104 -0.00287843 -0.15281 -0.0351931 -0.0421351 -0.0407309 0.0171028 0.0478299 0.00508771 0.0377154 -0.00765339 0.00238894 0.027549 -0.0128751 -0.0151233 0.0824179 0.0247523 -0.0509748 -0.0306155 -0.00523481 -0.00966964 -0.0124795 -0.0321004 0.0286535 0.0221946 -0.0116968 0.0111421 0.016688 0.0289878 -0.0118869 0.0318315 0.00484085 0.0211531 0.0118547 -0.034965 -0.00795913 -0.000761723 -0.0402032 -0.00308861 -0.0943668 -0.0609986 -0.0223051 -0.0378214 
-0.0116959 -0.00701178 0.0185298 -0.0158493 0.0987508 -0.0171799 -0.00174242 -0.0242759 0.0576446 0.0451244 -0.0123911 -0.0688542 0.00953628 0.015464 -0.0211065 -0.0277034 -0.0930857 0.0268051 -0.0448019 0.0202418 0.0337328 0.0319484 0.00843835 -0.0293622 0.0214094 -0.0237966 -0.00923456 0.0046049 -0.0102966 -0.0138381 -0.0322611 -0.0043974 -0.00973591 -0.0235544 0.0267497 0.0848432 0.0611722 0.00409674 0.0678208 0.0520217 0.10658 0.0673004 0.0688114 -0.0428345 0.0636596 0.0529681 0.0417063 0.0401189 0.00389778 0.0146863 0.0311257 -0.0343184 0.0177402 0.0421213 -0.0124925 -0.0010862 -0.032042 0.0187172 -0.0101161 0.0163074 -0.0100459 -0.0602796 -0.0131206 0.0486995 0.134133 0.075125 0.0637986 0.137181 0.234312 0.369951 0.293229 0.225173 0.228375 0.180705 0.160964 0.148456 0.0746013 0.128356 0.103972 0.10384 -0.0570848 -0.00058048 0.00362055 -0.0184116 0.021007 0.0269187 -0.0415428 -0.00579391 -0.0440037 -0.0109201 0.0744689 0.239796 0.215473 0.167357 0.0233811 0.107235 0.312976 0.561158 0.602673 0.531385 0.189081 0.160244 0.320491 0.336998 0.344742 0.312915 0.22747 0.175083 0.0275886 -0.0331165 0.0571618 -0.00596494 0.0156283 -0.00131812 0.00685305 0.00952124 0.0422126 0.00338954 0.0563109 0.123498 0.131342 0.195407 0.125512 -0.165298 -0.094618 0.0635008 -0.0467363 -0.182997 -0.279442 -0.06853 0.0472878 0.146077 0.23522 0.265166 0.163013 -0.00245348 -0.0180315 0.0102211 -0.00322149 -0.0355781 -0.0343101 0.0294299 0.0114006 0.0117347 0.135253 -0.00839792 0.0746197 0.0849607 0.113596 0.0682958 0.0356714 -0.258442 -0.162213 -0.0199238 -0.466694 -0.600287 -0.256222 -0.202211 -0.241004 -0.0861726 0.0163654 0.0723872 -0.0755085 -0.246498 -0.257203 -0.0761083 0.0133217 0.00211815 -0.0255874 0.0586677 0.0346271 0.00886739 0.0138222 -0.0234401 -0.10507 -0.130259 -0.137936 -0.35236 -0.402412 -0.261998 -0.391445 -0.351641 -0.710873 -0.94232 -0.446947 -0.391328 -0.474455 -0.400974 -0.348871 -0.476162 -0.404986 -0.476131 -0.163661 -0.161698 -0.0157419 -0.0566922 0.0166638 0.0317836 0.0279771 0.017897 0.105291 0.0708032 -0.167409 -0.00821215 -0.438829 -0.599457 -0.821823 -0.748308 -0.668196 -0.706495 -0.692196 -0.802314 -0.765969 -0.555394 -0.458985 -0.6853 -0.713131 -0.799846 -0.675196 -0.466434 -0.23257 0.0180166 -0.0358701 0.0404483 0.0127431 -0.000750943 0.0321765 0.0182844 0.190406 -0.0771586 -0.106867 -0.0655068 -0.280947 -0.549487 -1.00081 -0.815751 -0.81642 -0.872671 -0.98034 -1.03916 -1.00709 -0.620114 -0.892461 -0.651542 -0.63377 -0.624185 -0.500588 -0.328471 -0.163765 -0.0782943 -0.118491 -0.00684907 -0.019869 -0.0358146 -0.034358 0.0419454 0.212268 0.103273 0.0794231 0.0293937 0.00815531 -0.349532 -0.622748 -0.214026 -0.113928 -0.341619 -0.482229 -0.744132 -0.64391 -0.556993 -0.676325 -0.48794 -0.14888 -0.339024 -0.318125 -0.299158 0.0143599 -0.154227 -0.019038 -0.0211441 0.00363829 0.0666481 0.104011 0.163171 0.239135 0.156568 0.310961 0.345899 0.407403 0.221749 0.218651 0.134458 0.406855 0.430369 0.672138 0.210818 -0.154864 0.208529 0.00820102 0.00581426 0.276536 -0.0722721 -0.215245 0.12198 0.117814 0.0810114 -0.0219833 -0.00225477 0.0212415 -0.00587444 0.163318 0.233924 0.255327 0.0749254 0.13464 0.421656 0.436643 0.466922 0.169184 0.195251 0.378976 0.855586 1.12942 0.562702 0.391141 0.648755 0.312824 0.32075 0.303494 -0.0011339 0.0284155 0.386378 0.197572 0.0910495 -0.0408628 0.0178585 -0.0791625 0.0626528 0.0710695 0.0825511 0.22632 0.121422 -0.0147524 0.265393 0.423752 0.300522 -0.0467923 -0.0252814 -0.155565 0.226128 0.456173 0.205675 0.243838 0.30486 0.258984 0.29866 0.223126 0.00656599 0.133031 0.524049 0.17831 0.0960366 -0.0609899 -0.0217785 -0.0878208 0.0219834 0.0404937 0.0517909 0.10595 0.0326633 -0.148368 -0.157825 -0.0470775 -0.169897 -0.301572 -0.455842 -0.331443 -0.197031 -0.116774 0.119626 0.387416 -0.0952971 0.248002 0.304535 0.308362 0.503706 0.291366 0.564742 0.402781 0.00699186 -0.00286846 0.0421123 -0.00123306 0.0158169 0.0518733 -0.020938 -0.167932 -0.0731515 -0.217315 -0.46018 -0.406305 -0.513464 -0.31405 -0.279241 -0.302708 -0.314395 -0.202151 -0.135621 0.0430962 -0.0376475 0.34687 0.537439 0.794242 0.863751 0.700925 0.445605 0.197345 -0.0972329 -0.127594 0.00329467 0.00851898 0.0234653 -0.0120096 -0.139295 -0.268989 -0.261915 -0.0811478 -0.413364 -0.54216 -0.280397 -0.347923 -0.329557 -0.118544 -0.0862463 0.0789486 0.100294 -0.25622 -0.234652 0.160728 0.596961 1.06159 0.879187 0.813461 0.377363 0.12534 -0.0570625 -0.0619802 0.00469334 -0.0447983 -0.0577373 -0.0562492 0.0157995 -0.0549554 -0.240922 -0.0905806 -0.346058 -0.460776 -0.0817569 -0.145024 -0.142694 -0.0835708 -0.025328 0.140771 0.00344433 -0.344944 -0.246948 0.239095 0.460359 0.578385 0.451398 0.477391 0.073395 -0.0384063 -0.141042 -0.0672917 -0.0678918 -0.00450287 -0.0569626 -0.00446682 0.0523873 0.069587 -0.0342654 0.172551 -0.06758 0.0182772 -0.0181373 0.117589 0.500645 0.276818 -0.122333 -0.41335 -0.126191 -0.0476397 0.26057 0.357246 0.00217381 0.353523 0.143072 0.0338538 -0.0121045 -0.109485 -0.117305 -0.144297 -0.024252 0.000137608 0.0282881 -0.0348647 0.149646 0.0516361 0.182478 0.0973638 0.166424 0.288956 -0.0159318 0.0652303 0.390091 0.116001 -0.171478 0.223329 0.330875 0.169214 0.413203 0.149173 -0.350962 -0.225323 -0.142518 -0.198384 -0.049521 -0.150651 -0.0214254 0.0404114 0.0200324 -0.0428697 0.0454253 0.00397278 0.123472 0.111672 0.163703 0.111781 0.104114 0.227156 0.23427 0.173555 0.365446 0.705208 0.679989 0.755257 0.492624 0.104054 0.31998 0.008101 -0.0668235 -0.168189 -0.23474 -0.132911 -0.19858 -0.165329 -0.0747012 -0.0248462 0.00734998 0.0127856 0.0708214 0.0261538 -0.016738 0.0310518 -0.00735623 -0.0513944 0.122681 0.255429 0.365626 0.363595 0.242756 0.648038 0.886528 0.778323 0.286944 0.0303248 0.124675 0.177441 -0.17615 -0.198404 -0.322021 -0.235558 -0.0605629 -0.0170456 -0.0594318 0.018661 -0.0328095 0.0172 -0.0192533 -0.00634292 0.00219213 -0.105762 -0.0945114 -0.248617 -0.0609102 0.0985291 0.0725993 0.0864528 0.152029 0.272336 0.530489 0.55592 0.358799 0.339466 0.435949 0.0472772 -0.163738 -0.210875 -0.537215 -0.408462 -0.27762 -0.109509 -0.0358221 0.00297356 -0.0597952 0.0584898 0.0176893 0.0238234 0.0312144 -0.0131642 -0.228155 -0.211258 -0.308052 -0.407504 -0.0836815 -0.0115638 -0.173988 -0.0266849 0.186011 -0.0587503 0.0714521 -0.142337 -0.303482 -0.262757 -0.320112 -0.414975 -0.531199 -0.39682 -0.257456 -0.130278 -0.107911 0.0207833 0.0168838 -0.0263343 -0.00195281 0.0269301 -0.00581744 0.00764893 -0.0452787 -0.137626 -0.302467 -0.47608 -0.488779 -0.450224 -0.54386 -0.499984 -0.365668 -0.423434 -0.50117 -0.735825 -0.696595 -0.312548 -0.344993 -0.248532 -0.256359 -0.295598 -0.131461 -0.0243617 0.00561406 0.0599802 0.0150395 0.000139326 -0.00141596 -0.00895069 0.00500413 0.0636921 0.0258379 0.039386 -0.146317 -0.130575 -0.297617 -0.425069 -0.271274 -0.410798 -0.38222 -0.275997 -0.220266 -0.246744 -0.0436288 -0.113268 -0.0643264 -0.0919243 0.0280635 -0.0491275 0.00966568 -0.027508 0.0683462 0.0402128 -0.0868309 -0.0232992 0.0184871 0.0476045 -0.00151108 -0.0553403 -0.0866465 0.00230231 -0.0316481 -0.151765 -0.199491 -0.0213092 -0.0243064 0.0524039 -0.105901 -0.0435188 -0.00962714 0.0417526 0.0987777 -0.077062 0.063744 0.0475817 0.00540789 0.00221403 0.0135577 -0.0246595 0.0605147 -0.0749228 0.0905289 0.0514098 0.0267977 0.0870887 0.022517 0.0558703 -0.0357227 -0.0304192 0.00402563 -0.0343652 0.00274429 -0.00657509 0.0492895 0.124079 0.068003 -0.036465 0.00325511 0.0570841 0.0579542 -0.00818928 0.00916729 0.00985445 0.0554745 0.0612517 -0.031818 0.0126148 0.029839 -0.0492068 -0.00465121 0.0620845 -0.00383796 -0.00173517 -0.0478618 0.000988414 -0.0249271 0.0181468 0.0349433 0.0021181 -0.0590051 -0.0615122 -0.011613 -0.013431 -0.000854587 -0.00311682 -0.0573291 0.0246414 0.0451145 -0.0210785 -0.00351607 0.0811356 0.0657864 0.0256351 -0.0317545 0.038676 -0.0293099 0.0131344 -0.0478573 
0.00968884 -0.00320507 0.0788837 -0.0171907 -0.0324264 -0.0273783 -0.00906627 -0.0496824 0.00125892 0.00953077 -0.0416069 -0.0497399 -0.0161021 -0.00084781 0.0361233 -0.084102 0.0399647 -0.00595212 -0.00958022 -0.042286 0.0437722 -0.0276594 -0.000722373 0.0569478 -0.00856696 -0.00448691 0.0243606 0.0159264 0.0189036 -0.0861321 0.0233315 0.0362926 0.0635898 -0.0504661 0.0155847 0.0534377 0.00622568 0.002455 0.0835539 -0.0149052 0.014566 0.0329162 -0.0263834 -0.025687 -0.0542413 0.0236172 0.0375747 -0.0148724 0.0211565 -0.0249099 -0.0334892 -0.0220995 -0.0193961 -0.014855 -0.010608 0.0218916 -0.0325534 0.0235696 -0.00718236 0.0288677 -0.023018 0.0350049 0.0274545 0.0313929 0.0313441 0.00837232 -0.0130894 -0.0198991 0.0545799 0.0938521 0.0032402 -0.094729 -0.0060296 0.0491312 0.0841465 0.0180374 -0.0601536 -0.012466 0.0322492 0.00604793 0.0144772 0.104679 -0.0111382 -0.00110717 -0.0627745 -0.0181667 -0.00154541 0.0335461 0.00231895 -0.0498234 0.0651206 -0.00650661 0.00517937 -0.104557 -0.115695 -0.155277 -0.261301 -0.24685 -0.320441 -0.335995 -0.374095 -0.109845 0.134205 0.26159 0.20257 0.178745 0.0595307 0.00800072 0.0853187 0.00194835 -0.0929609 -0.125182 -0.030863 0.0241246 0.0198751 0.0580662 0.0042266 -0.0477872 -0.184159 -0.0669147 -0.220065 -0.258494 -0.397362 -0.430597 -0.554871 -0.500811 -0.373938 -0.175004 -0.110476 0.273596 0.306689 0.261875 0.3388 0.374612 0.163523 0.0382593 0.0584403 -0.013334 -0.0272268 -0.0738775 -0.0541775 -0.0200916 -0.0092706 -0.00457512 -0.0960445 -0.029553 -0.241354 -0.162737 -0.0616278 -0.290503 -0.472866 -0.388186 -0.272854 -0.316789 -0.280792 -0.148473 0.507924 0.910564 0.72414 0.649745 0.797562 0.607773 0.442601 0.188975 0.0110712 -0.0381811 0.0606606 0.053344 -0.00491616 -0.0195228 0.0751212 -0.00137747 -0.0516713 -0.120054 -0.160859 -0.203653 -0.277018 -0.424158 -0.36601 -0.290972 -0.135032 -0.118489 -0.0825705 -0.226153 -0.368468 0.00836197 0.228455 0.748667 0.692486 0.561954 0.537524 0.353015 0.259264 0.0431249 -0.0268871 0.0561641 -0.0165708 0.0288147 -0.0210085 0.0128075 -0.094173 -0.0824318 -0.095858 -0.0736258 0.137398 0.301023 0.250741 0.137644 -0.0495024 0.17951 0.225849 -0.0438678 -0.308312 -0.314638 0.154764 0.319294 0.500094 0.806998 0.912555 0.740735 0.493984 0.315688 0.0332182 -0.00672959 -0.0351731 0.0391589 0.00665713 0.0024782 -0.29429 -0.257392 -0.111323 -0.0512186 0.168527 0.224239 0.060315 0.165028 0.262686 0.214199 -0.189988 -0.498798 -0.563947 -0.481538 -0.677457 0.0412078 0.663 1.00497 1.03634 1.0812 0.781738 0.355693 0.00995892 -0.0292797 0.0118207 0.0198107 0.0151675 -0.0908439 -0.305509 -0.198963 -0.120053 0.0539433 0.181461 0.0767865 0.00837103 0.0736359 0.154503 -0.00080419 -0.553028 -0.763375 -0.680386 -0.663167 -0.693263 -0.271936 0.423906 0.846296 0.92592 1.05506 0.693 0.22403 -0.00912044 0.0218545 0.0646448 -0.0394145 -0.00818602 -0.110177 -0.10279 -0.164403 0.109489 0.246629 0.316927 0.517136 0.230562 -0.173304 0.264449 0.113859 -0.222942 -0.214711 -0.39691 -0.407153 -0.703053 -0.469394 0.185064 0.63631 0.737369 0.866771 0.612796 0.179003 0.00456238 0.0276401 -0.0223435 0.0217589 -0.0486915 -0.10027 -0.0762084 -0.0240516 0.27009 0.38982 0.377709 0.137879 0.10507 -0.18141 -0.156385 0.101083 -0.306313 -0.412681 -0.0879849 -0.305904 -0.557353 -0.265993 0.109365 0.616577 0.700611 0.61199 0.423626 0.18003 -0.0370181 0.0949267 -0.0335908 -0.00451509 0.0216838 -0.116348 -0.112997 -0.00151903 0.249265 0.279816 0.309962 0.290232 0.171503 0.194102 0.00159854 0.082639 -0.471741 -0.723066 -0.839245 -0.673468 -0.63118 -0.294461 0.322328 0.370252 0.45571 0.312919 0.156118 -0.0602192 0.0376907 -0.0362408 -0.049226 -0.0147111 -0.0451807 -0.0480143 -0.112083 0.187289 0.501378 0.29587 0.326316 0.349029 0.530543 0.536977 0.121524 -0.219026 -0.658659 -0.753423 -0.905453 -0.526541 -0.57192 -0.191493 0.234352 0.301084 0.401029 0.353801 0.176068 -0.0406789 -0.0139615 0.0313557 -0.0176623 0.0146433 -0.0456959 -0.117861 -0.090747 0.208218 0.55079 0.435745 0.242996 0.264053 0.640273 0.536334 0.24619 -0.187009 -0.61984 -0.724912 -0.575341 -0.254581 -0.358905 -0.231585 0.116027 0.120552 0.129875 0.260025 0.0245155 -0.00111597 -0.0160358 -0.00326204 0.0028926 -0.0360358 -0.0400769 -0.0900025 -0.0834148 0.180036 0.571874 0.357517 0.154553 0.342129 0.384418 0.220767 0.404236 -0.239437 -0.654537 -0.704614 -0.245779 -0.245176 -0.182347 -0.111444 0.118263 0.151741 -0.21941 0.0382084 0.0722955 0.0122388 0.0270745 -0.00579429 0.00335359 -0.0229418 -0.0148359 -0.053473 -0.0567938 0.23964 0.478961 0.311801 0.31755 0.0986211 -0.093243 -0.193245 0.0789393 -0.124057 -0.0864821 0.181574 0.251906 0.171432 0.103414 0.22442 0.223555 0.0620439 -0.14639 -0.110937 0.0591801 0.0372714 -0.0079611 0.0481235 -0.0189831 -0.0729534 -0.0572237 -0.0964848 0.0395227 0.268447 0.667257 0.782215 0.331236 0.0783301 -0.213013 -0.0822013 0.00120534 -0.155509 0.307775 0.650396 0.455804 0.252115 0.161374 0.288036 0.293413 0.00501638 -0.126287 -0.0576115 0.0756657 -0.0157721 -0.0306306 -0.0464614 0.0440567 0.0379013 -0.0552322 -0.186948 0.0588768 0.243794 0.576466 0.704216 0.545655 0.491101 0.0222678 -0.237572 -0.208547 -0.0708867 0.131236 0.388209 0.328816 0.000846618 0.0261507 0.273561 -0.0753256 -0.12056 -0.087457 0.0526236 0.114441 -0.0701318 0.0234344 -0.0060611 -0.00539138 -0.0556215 -0.0295828 -0.254066 0.0580812 0.305517 0.603364 0.451855 0.516826 0.643018 0.295578 0.0416585 0.0588864 0.0646561 0.0971696 0.12555 0.0225055 -0.029571 -0.127662 -0.023409 0.0187762 -0.0193861 -0.01506 0.00475231 -0.0115105 -0.0204916 -0.0782275 0.00736745 0.00318612 -0.050974 -0.0552717 -0.268499 -0.0519142 0.306808 0.306134 -0.0485297 0.0953181 0.192997 0.349702 0.403668 0.361736 0.0616378 -0.274774 0.0653184 0.0703036 0.00458234 -0.201464 -0.0735247 -0.031737 0.00813387 0.179783 0.198478 0.0182514 -0.0140945 -0.0176752 -0.0105452 0.0252628 -0.00532 0.00998553 -0.0805064 -0.0497599 0.123032 0.265649 0.224119 0.141534 0.504421 0.190453 0.553625 0.553455 0.150829 0.0243378 0.0657512 -0.14328 -0.143898 -0.0939083 -0.0721946 0.136252 0.167699 0.179075 0.122464 0.112618 -0.0207278 -0.0284419 0.0683446 -0.0155614 0.0696232 -0.0539999 -0.0552936 0.0616572 -0.0813464 0.0998165 0.269953 0.21305 0.254269 0.487027 0.542098 0.791455 0.532743 0.197579 0.152587 0.2436 0.00994368 0.00951433 0.151214 0.0223842 0.151616 0.0825517 -0.0356285 0.014293 -0.00291598 -0.0397766 -0.0121832 -0.033479 0.0802992 0.0391088 -0.0175693 -0.0651187 -0.197368 -0.0692749 0.0194347 0.15805 0.153588 0.229372 -0.0625916 0.0660102 0.250996 0.467907 0.441678 0.287377 -0.0365147 -0.117497 0.0759622 0.162141 0.162206 -0.070755 -0.0828899 -0.0498978 -0.00275744 -0.0323059 -0.0165157 0.0110656 -0.0407649 -0.105875 0.0281762 -0.137239 -0.210031 -0.124185 -0.0189327 0.163785 0.139183 0.0775818 0.211261 0.24768 0.319856 0.221415 0.225592 0.21781 -0.0161067 0.124261 0.0866284 0.0305007 -0.0132355 -0.00191258 0.0115692 0.0666379 0.00118176 -0.00808418 -0.0054952 -0.0265171 -0.0097057 0.0446512 -0.0632573 0.0125698 -0.138926 -0.0933106 -0.053184 -0.0930008 -0.0969776 -0.0215689 -0.0610199 -0.0740013 0.0776647 -0.0131982 0.313966 0.243434 0.153603 -0.0250836 -0.0729784 -0.0945973 -0.0423406 0.0105714 0.118787 0.0406483 0.048121 0.0556903 -0.0548296 -0.0574425 -0.0227423 -0.0191858 0.0138215 0.0135539 -0.010035 0.00689823 -0.0303717 -0.0547218 0.00883399 -0.0449685 -0.0776333 0.0257767 0.00150788 -0.00731538 -0.00897853 0.0105062 -0.0173951 -0.103766 -0.0391502 -0.0496716 -0.00587994 0.0440129 0.0496631 -0.0763194 -0.0493244 -0.00867047 0.0602398 -0.015645 0.000458985 0.0059828 0.0327571 -0.0062997 0.020213 0.0429488 0.0306589 -0.0387415 0.0402222 -0.0240646 0.0187124 -0.0348871 0.03722 -0.102539 0.000852414 0.0159703 -0.000901223 0.0189263 -0.0449712 -0.0108676 -0.064328 -0.0137904 -0.0507822 -0.0338154 -0.00399188 0.0526432 0.0265822 
-0.00928108 -0.0206939 -0.00758222 0.0146703 -0.0735447 -0.00925664 0.0175985 0.0124525 0.0854843 -0.0369571 -0.0514993 0.0146373 -0.032553 -0.105748 0.0717403 0.00440633 0.0327828 0.0271021 -0.0160625 -0.0505205 -0.0255883 -0.082402 -0.0348401 -0.00806229 -0.0108231 0.0151661 -0.0664424 0.0316417 -0.0864059 -0.00415154 -0.0305654 -0.00331554 -0.00228479 0.0328055 -0.0426162 -0.0250809 0.0329567 0.0320231 -0.0235044 -0.0318511 -0.0157953 -0.00848697 -0.0680458 -0.028557 0.0303091 0.0457258 0.0349595 -0.0196492 0.00875956 0.0116312 -0.0135429 0.0304003 0.0329959 -0.0223685 -0.00936122 0.0232994 -0.00166709 -0.00765274 0.0497537 0.0255049 -0.0315829 -0.0671691 0.00206499 -0.0220286 0.0361739 0.0710629 0.0258322 -0.0575856 -0.0544198 -0.076424 0.00344436 0.0223746 0.0472706 -0.0473143 -0.0352483 -0.0136581 -0.0520357 -0.128441 -0.0716993 -0.0268798 -0.0128058 0.0652597 0.0434602 -0.0162546 -0.00164018 0.0232169 0.0118866 0.0128776 -0.0410207 -0.0251844 0.0602254 0.0619782 0.0902077 0.103888 0.150168 0.198686 0.219917 0.319058 0.122841 0.060748 0.127228 0.111752 0.0476264 -0.0693471 -0.00826926 -0.179369 -0.219578 -0.185469 -0.179435 0.0179864 -0.0553959 0.0247326 0.00676114 -0.0155271 -0.0241265 -0.0182004 -0.0529331 0.0383628 0.0795823 0.0766094 0.0508002 0.223832 0.222878 0.292362 0.147445 0.00716778 0.016597 -0.0158293 0.0758138 0.041967 0.284842 0.14384 -0.0589789 -0.324452 -0.445271 -0.403974 -0.208499 -0.0175331 0.00447571 -0.0118286 -0.000508554 -0.0263442 0.0448821 -0.0255678 -0.0190906 -0.00249362 0.046476 0.151593 0.0661452 0.252729 0.151527 -0.168827 -0.170256 0.101374 -0.0712089 -0.143568 0.134725 -0.059021 -0.16302 -0.0259058 -0.174581 -0.380585 -0.33085 -0.322989 -0.13981 0.00775554 0.0121372 0.0612744 -0.060295 -0.032907 0.0175854 -0.0531911 -0.0584782 0.0576789 0.116674 0.162754 0.287174 0.275623 0.324442 0.0269571 0.279579 0.456515 0.0172345 0.433479 0.456779 -0.0129649 -0.0561248 0.0372673 -0.0260163 -0.0387268 -0.012175 -0.0951149 0.0475947 0.0415333 0.0572438 0.0166362 0.0246841 0.000108577 0.0346424 0.0672622 0.127214 0.0702657 0.183934 0.234997 0.082362 0.22114 0.261091 0.142734 0.339776 0.342816 0.429951 0.58444 0.59798 0.253789 -0.0371064 0.250196 0.38702 0.145362 0.31952 0.257791 0.0316918 0.12426 -0.00663032 -0.0306863 -0.0444847 0.0487742 0.00476813 0.0742815 0.180144 0.128085 0.0690727 0.393401 0.481622 0.136387 0.504469 0.61504 0.50624 0.140578 0.509075 0.344499 0.114785 0.613279 0.500209 0.0828816 0.310171 0.342135 0.587425 0.25927 -0.0885008 0.0601211 0.0360678 -0.040434 -0.0776634 0.0471134 0.0819116 0.281516 0.42201 0.0466703 0.126473 0.219061 0.318828 0.243421 0.234433 0.0561902 0.169404 -0.277564 0.146663 0.375081 0.0544785 0.393968 0.279922 0.161616 0.0300796 -0.0105194 0.215442 -0.036797 -0.0307436 0.0469112 0.0425103 -0.0747483 0.0619349 -0.0274947 0.147531 0.237597 0.0605525 -0.253403 -0.267755 -0.207444 0.291373 -0.348534 -0.702805 -1.08409 -1.36082 -1.14762 -0.736543 -0.158244 0.144694 0.139286 0.496872 0.395706 0.372568 -0.266164 -0.121223 -0.0881062 -0.0463242 0.0488345 -0.00130784 -0.0181809 -0.00838977 0.025996 0.120212 -0.0132905 -0.381556 -0.7937 -1.00013 -0.896763 -1.23219 -1.75321 -1.954 -1.96932 -1.74119 -1.01795 -0.328493 0.142497 0.146555 -0.142657 -0.0238699 -0.0662573 -0.234895 -0.543159 -0.372035 -0.0959695 -0.0436242 0.0952271 0.0611183 -0.0138756 0.021449 0.00596303 -0.0265094 -0.28048 -0.693103 -1.07354 -1.59199 -1.77713 -2.3711 -2.32335 -1.38121 -0.77851 -0.290914 0.283975 0.410597 0.465399 0.144585 -0.377373 -0.108394 -0.0653624 -0.305371 -0.540582 -0.281149 -0.33845 -0.220104 0.0788087 0.0218574 0.0284528 0.054453 0.000675915 -0.0630602 -0.355665 -0.705186 -1.17075 -1.52072 -1.604 -1.63784 -0.965066 -0.255291 0.428466 0.730361 0.745674 0.369017 0.195726 -0.0154117 -0.274116 -0.289732 -0.207958 -0.181092 -0.190653 -0.395283 -0.144585 -0.072934 0.0246162 0.0830357 -0.0404968 -0.00284903 0.0346196 0.0649968 -0.290825 -0.46593 -0.822119 -0.682113 -0.55615 -0.264577 0.28847 0.329234 0.602665 0.487795 0.217248 0.11178 0.240099 0.0762306 0.0902295 0.123842 0.151243 0.129912 0.0184124 -0.238033 0.00656769 0.198497 0.156829 0.156906 -0.023589 0.0244391 -0.0672276 0.0401861 -0.138652 -0.309459 -0.182802 0.0482401 0.274792 0.482724 0.897 0.595605 0.458331 -0.241969 0.124446 0.0766777 0.203719 -0.370789 -0.340053 0.235024 0.128125 0.1486 0.198134 0.15966 0.191742 0.27833 0.29288 0.123926 -0.000701189 -0.014655 0.074842 0.0749277 0.0585913 -0.0762712 0.0988245 0.363132 0.239394 0.271816 0.430193 0.205653 -0.33662 -0.323616 0.0973761 0.304731 0.157319 -0.200547 0.0567069 0.120777 0.139238 0.167709 0.160257 0.260803 0.420039 0.488945 0.297429 0.127782 -0.0088408 -0.0327739 -0.00632118 0.0861687 0.271597 0.2105 0.305087 0.157811 -0.0514362 -0.016529 -0.0396792 -0.44644 -0.575611 -0.25071 0.069756 0.237345 0.244228 -0.120013 0.13154 0.120961 0.18428 0.132875 0.260288 0.391545 0.436526 0.291692 0.218319 0.0588513 0.0447467 0.0118759 0.0103463 -0.0361721 0.418833 0.482083 0.375012 0.270025 0.164258 -0.029857 -0.281322 -0.431417 -0.297555 -0.166035 -0.149752 -0.0406048 0.00361548 0.211103 0.52586 0.391745 0.184869 0.0472864 0.288848 0.327102 0.324565 0.298435 0.117093 0.0729464 0.0304652 0.00178536 -0.00965101 0.0282967 0.307333 0.441553 0.364855 0.32038 0.307631 -0.0620225 0.161046 -0.00496466 -0.204441 -0.518953 -0.321068 -0.107601 -0.209082 0.173976 0.3408 0.288965 0.0585728 0.213882 0.149834 0.0958853 0.0994763 0.187662 0.142019 -0.057572 -0.0437834 0.0257551 0.00518605 0.00497125 0.219995 0.378176 0.36334 0.313332 0.0691101 0.128914 0.138332 -0.107866 -0.0263503 -0.285236 -0.273102 -0.131155 -0.192107 -0.147665 -0.180322 0.154892 0.0784446 0.0204706 0.0529714 -0.088281 -0.115526 0.0446559 0.0670258 0.0369017 -0.000315207 0.0132774 0.0314413 0.0125267 0.203951 0.286921 0.183345 0.113227 -0.013791 -0.157022 -0.256721 -0.193139 -0.189802 -0.258506 -0.353753 -0.257466 -0.60789 -0.254095 -0.284622 -0.233816 -0.118931 -0.247233 -0.072186 -0.130428 -0.128109 0.0190696 0.0344168 -0.0384668 0.0310087 0.0478532 -0.00458059 0.0640685 0.122271 0.334424 0.271691 0.129153 0.0370091 -0.274803 -0.43682 -0.119714 -0.314187 -0.451199 -0.264019 -0.340934 -0.278311 -0.0775491 -0.100066 -0.388546 -0.094214 -0.198991 -0.176991 -0.0933804 -0.170818 -0.0344491 0.0176383 -0.037242 -0.0468526 0.0525759 0.0432511 0.0697196 0.0705105 0.223185 0.205009 0.31379 0.422301 -0.0857415 -0.0382305 -0.0478965 0.178442 -0.0816448 0.0518602 -0.0908689 0.214675 -0.0728421 -0.213561 -0.16423 -0.268758 -0.313002 -0.384617 -0.343605 -0.343844 -0.0200587 -0.00839716 -0.0209981 -0.0387721 0.0464893 -0.0554127 0.0674497 0.122684 0.246659 0.355655 0.36465 0.297676 0.278761 0.383185 0.0385736 -0.121575 0.0307525 0.0272658 -0.101296 0.0243026 -0.0783909 0.081513 -0.32658 -0.419242 -0.322537 -0.441536 -0.403626 -0.25543 -0.00999067 0.0190809 0.0377031 -0.00915129 -0.036044 -0.0543265 0.0163137 0.0209517 0.0799513 0.0585986 0.220815 0.45222 0.603996 0.732319 0.380011 0.219652 0.29881 0.0901102 -0.0625111 0.212481 0.0365866 -0.0307321 -0.196368 -0.0689962 -0.177984 -0.361792 -0.220971 -0.0308801 -0.0224714 0.0169363 0.0183914 -0.0499865 -0.0250261 -0.0596518 -0.0234951 -0.0337589 -0.0595119 -0.0788984 -0.126113 -0.0319377 0.0643715 -0.0535557 -0.0345719 0.0834562 -0.0629958 -0.0957519 -0.0232453 0.0475097 0.0104293 -0.0364929 0.0764328 -0.0982772 -0.0345518 -0.113651 -0.0382495 -0.0200287 0.0224035 0.0080137 0.00142937 -0.00313278 0.0110306 0.0639459 -0.0186008 -0.0180048 -0.0296857 -0.0328553 0.0125866 0.0356972 -0.0403442 0.0126181 0.0770711 -0.0299002 0.00508796 -0.0194437 -0.032782 0.000560942 -0.00841753 -0.0383693 0.0324845 0.0263675 0.0277064 -0.0307426 -0.120404 0.0409149 0.00104063 0.00718468 0.0571217 -0.0421028 
-0.0204687 0.0611026 0.0248061 -0.00896401 -0.0527647 0.0866227 -0.0512342 -0.045642 -0.013961 -0.0270743 -0.0287305 0.0337759 0.013458 -0.00155259 -0.0117484 -0.0189998 -0.0440889 0.0120204 -0.0699074 -0.0589553 0.0239057 -0.00960581 0.0419958 -0.0302625 0.0607315 -0.0197564 0.0239169 0.0377635 0.0212416 0.0408311 0.0265478 -0.0121728 -0.0401609 -0.0038661 -0.0283649 0.0246938 -0.0158565 -0.0156876 -0.0146145 0.0276614 0.0335244 0.029725 0.0237909 -0.00504081 0.0151795 0.0391973 0.0603818 0.0743832 0.000879467 0.0134314 0.00830825 -0.0060431 -0.00978818 0.0258541 0.015018 -0.0205025 -0.0119255 -0.0413198 -0.026776 -0.0370583 0.010937 0.0421892 0.0487089 0.0611302 -0.00824934 0.0653055 0.0530361 -0.0437311 -0.0130072 0.00775472 0.033435 0.00389991 0.0400323 0.109849 0.129667 0.191055 0.0951191 0.157791 0.129431 0.0372821 -0.0296078 -0.0356531 0.00640941 -0.0215558 0.0389217 0.0255233 0.033727 -0.056211 0.00927014 -0.0698876 0.0121688 0.0182814 -0.0542748 -0.114218 -0.182461 -0.250057 -0.302496 -0.170517 -0.0940297 -0.0938323 -0.0852107 0.0206733 0.199987 0.276894 0.250092 0.185549 0.0486669 0.0334045 0.0201783 0.0220289 0.00773426 0.0292188 -0.0123802 0.00116707 -0.0502557 -0.00187148 -0.00575414 -0.0192953 -0.03573 -0.127825 -0.090467 -0.182522 -0.456545 -0.481396 -0.524156 -0.509442 -0.56531 -0.352598 -0.244328 -0.062929 0.0653019 0.111457 0.00747486 0.165962 0.131306 0.212834 0.0137744 0.0606414 0.0439761 0.0157718 -0.00450093 -0.0425882 0.00988656 -0.000918323 -0.0143276 -0.0575741 -0.103371 -0.208523 -0.166004 -0.171035 -0.367089 -0.4287 -0.52267 -0.381519 -0.255651 -0.383421 -0.499084 -0.329818 -0.463531 -0.134044 -0.010246 0.00234294 0.1083 0.192819 0.161526 0.0218408 -0.00565706 0.0329299 0.0463511 -0.00235365 0.0250411 -0.0401725 -0.104518 -0.114675 -0.184847 -0.230799 -0.327824 -0.457864 -0.396297 -0.532166 -0.383611 -0.286951 -0.313217 -0.469341 -0.391764 -0.50766 -0.358578 -0.0177236 0.095471 0.158927 0.298208 0.130943 0.213465 0.155585 0.0355707 0.0405405 -0.0238916 -0.0322177 -0.0601006 -0.0009972 -0.12934 -0.15504 -0.192583 -0.280122 -0.301842 -0.314288 -0.40303 -0.373757 -0.289194 -0.331362 -0.31931 -0.0454157 -0.0351066 -0.0421177 -0.180874 -0.277141 -0.0439635 0.0277999 0.00169522 0.376043 0.309917 0.168818 0.0658267 0.0465534 -0.0015372 0.0333631 -0.0156826 -0.00658915 -0.111654 -0.325524 -0.227136 -0.457419 -0.533821 -0.482663 -0.634695 -0.406045 -0.310901 -0.29529 -0.184814 0.0849187 0.358785 0.251517 0.146349 -0.226536 0.090265 -0.0805619 0.0158388 0.288211 0.411682 0.0688732 -0.0157987 -0.0064532 0.0365903 -0.0381364 -0.0790087 -0.0313435 -0.267216 -0.296144 -0.384204 -0.464347 -0.421042 -0.501143 -0.312486 0.229083 0.426 0.0810682 -0.23231 -0.114723 0.248925 0.321359 -0.0609253 -0.124601 -0.00285481 -0.275921 -0.00304882 0.228799 0.284069 0.0876519 -0.0173266 0.0487701 -0.000471859 0.0175455 -0.0825245 -0.0320757 -0.202476 -0.28518 -0.368019 -0.206435 -0.0883738 0.074963 0.297091 0.593403 0.44787 0.117826 -0.301482 -0.178805 0.266842 0.208574 -0.347592 -0.502783 -0.380622 -0.215441 -0.134936 0.158374 0.185271 -0.0122368 -0.106995 0.0258714 -0.0457502 -0.00182679 -0.086253 -0.0706583 -0.136841 -0.225151 -0.051906 0.121836 0.0757717 0.0701548 0.618532 0.638295 0.441219 0.222013 -0.437823 -0.496658 -0.0885547 -0.0962175 -0.581222 -0.390579 -0.238571 -0.0258065 0.189275 0.149686 0.0867694 -0.0302798 0.000358647 -0.052521 -0.0499435 -0.0137164 -0.0808622 -0.0136768 -0.215835 -0.0964942 0.189433 0.0347558 -0.00922049 0.284848 0.625093 0.836174 0.870622 0.395802 -0.411954 -0.492067 -0.432765 -0.135801 -0.231312 0.098042 0.382592 0.436234 0.45752 0.281452 0.0438264 -0.0621554 -0.0636614 -0.0171959 -0.0274219 -0.0549165 -0.0269811 -0.0336693 -0.0503842 0.0193847 0.259348 -0.0241651 -0.124732 0.385668 0.975585 0.793063 0.5247 -0.280526 -0.470314 -0.468882 -0.382935 -0.184806 0.208389 0.578928 0.284794 0.221892 0.393543 0.301299 -0.068325 -0.14313 -0.0515316 -0.0148688 0.00399046 -0.00019204 -0.00530728 0.0138608 -0.0424306 0.0299906 0.19554 0.0360299 -0.12636 0.203376 0.825331 0.9252 0.446547 -0.170909 -0.64356 -0.499225 -0.278938 0.0188182 0.370861 0.513901 0.282805 -0.0387236 -0.123034 -0.00767051 -0.135925 -0.194685 -0.177861 0.0341216 0.019333 0.0103367 0.0673384 -0.0171447 -0.0713391 -0.0179178 -0.0267549 0.0636088 -0.258494 0.125701 0.61592 0.856244 0.385805 -0.400467 -0.491105 -0.405857 -0.231059 0.0552764 0.19591 0.333216 -0.0120068 -0.26674 -0.303982 -0.121501 -0.10036 -0.162156 -0.117688 -0.0627898 -0.023146 0.0124581 -0.0297143 -0.103145 -0.0557644 -0.0869752 -0.109606 0.0243177 -0.121211 0.116509 0.763867 0.6633 -0.294099 -0.639939 -0.410161 -0.0318142 0.0979483 0.100667 -0.013159 0.0821345 -0.0999368 -0.354285 -0.320626 -0.267526 -0.11122 -0.226155 -0.167373 -0.0619063 0.0144576 0.0214249 -0.0311856 -0.118214 -0.178492 -0.149305 -0.271946 -0.142953 -0.0678678 -0.0082199 0.525934 0.640204 -0.115257 -0.476774 -0.158396 0.0730877 0.339221 0.26203 -0.163515 0.0234513 -0.184203 -0.434175 -0.442677 -0.265104 -0.12366 -0.138887 -0.188506 -0.00878012 -0.00527242 -0.055242 0.0167205 -0.0794229 -0.214942 -0.112019 -0.0921133 -0.125799 -0.202515 -0.225282 -0.0248503 0.129266 -0.136987 -0.252118 -0.167015 0.00394431 0.317921 0.287315 -0.0475724 -0.0822653 -0.481302 -0.434505 -0.436146 -0.210896 -0.170163 -0.127505 -0.0709323 -0.0224327 0.06201 0.0551257 -0.0786249 -0.0960842 -0.373236 -0.22385 0.0396392 0.166733 0.0668757 -0.17782 -0.22286 0.192211 0.389819 0.0810717 0.0742452 -0.0577349 -0.0888369 -0.18363 -0.129878 -0.205275 -0.518968 -0.403437 -0.298683 -0.274487 -0.161811 -0.118002 -0.0278493 0.0114822 0.00348713 0.0606573 -0.0225479 -0.0967999 -0.251643 -0.192532 -0.0434211 0.124509 0.0475142 -0.0894781 0.11809 0.53323 0.565059 0.307256 -0.126987 -0.156313 -0.176985 -0.135955 -0.127376 -0.307123 -0.386303 -0.364756 -0.240614 -0.147324 -0.0933058 -0.0523632 -0.000650287 -0.00656626 0.00333594 -0.0352737 0.0261423 -0.105928 -0.289479 -0.179714 -0.171676 0.187044 0.372789 0.0795797 0.103298 0.371549 0.258521 0.132414 -0.286407 -0.0508262 -0.359866 -0.277708 -0.273182 -0.467599 -0.380007 -0.287715 -0.283683 -0.249935 -0.0829461 -0.0451188 -0.0139126 0.0209401 0.0509087 0.0627698 -0.094114 -0.0276026 -0.263269 -0.287494 -0.12679 -0.215399 0.243354 0.198838 0.257359 0.0712067 0.3372 0.0731675 -0.179024 -0.0513079 -0.172404 -0.204867 -0.461585 -0.495273 -0.395505 -0.182155 -0.229225 -0.0976049 -0.0307757 0.0625688 0.0345633 -0.0370946 0.00238771 0.0998956 -0.0756364 0.0163131 -0.116261 -0.150821 -0.171341 -0.0865412 0.0977711 0.0729278 0.241887 0.241407 0.0508216 -0.102137 0.0550613 0.161899 -0.055619 -0.237246 -0.283829 -0.325115 -0.163022 -0.0884702 -0.0570052 -0.118146 -0.0474409 -0.0196288 -0.0799477 -0.000331419 -0.0056118 0.00304864 -0.00947544 -0.0548775 -0.0979252 -0.043516 0.0356087 0.039589 -0.0539488 -0.0473361 0.0919674 0.183339 0.114842 0.000568021 -0.0759726 0.00379798 0.0446365 -0.0155046 -0.123682 -0.0152926 -0.00331927 -0.0324754 -0.0768485 -0.00297089 -0.00734184 -0.0108159 -0.0578059 -0.0275694 -0.000303423 0.0315133 0.00159809 -0.0117496 -0.000653761 0.000709525 -0.0527891 -0.00500699 -0.0649854 0.0267211 0.0367913 0.120967 -0.130214 -0.1623 0.00234487 -0.00482026 0.00186521 -0.0443864 -0.104003 -0.069339 0.00580792 -0.0506645 0.0120283 -0.0381654 0.0431006 -0.0630705 -0.0306767 0.0614929 -0.00107977 0.0299169 0.0284898 0.0399586 0.0419284 0.1226 0.0696953 0.12939 -0.0901238 -0.0377018 -0.0452768 -0.0142603 0.0360202 -0.0518246 0.0521353 0.0692085 -0.000631738 -0.0334438 -0.123884 -0.0684055 -0.0173041 -0.0173814 -0.0243207 0.00449347 0.0133913 0.0282634 0.0117377 -0.0511137 -0.0357014 -0.0308484 -0.00397576 -0.0463311 0.0126874 -0.0230167 0.00644814 -0.0140922 -0.0546886 0.00929499 -0.0370458 0.032208 0.0461272 -0.0616357 -0.0101755 -0.016843 -0.0133892 -0.0605188 -0.0496019 0.0778363 -0.0355908 -0.0407764 0.0296828 -0.0396086 0.0147946 0.0229594 0.0367432 -0.00524993 
0.02498 -0.00146887 -0.0225796 -0.102033 0.0439795 -0.0362032 0.0601508 -0.0256074 -0.00484678 -0.00360835 -0.0122964 0.0268563 -0.0363719 -0.0234546 0.0671981 0.03872 -0.0052059 -0.0384401 0.016495 -0.0551316 0.0227966 0.00883799 0.0195238 0.0307126 0.00406024 -0.0389291 0.00925248 0.0151626 -0.0558369 -0.0239192 0.0625083 0.0149174 0.0098234 0.0183684 -0.0179431 -0.037079 -0.0571868 0.0242841 -0.0433805 -0.00871517 -0.00400643 -0.0331461 -0.029336 -0.0297243 0.0269977 -0.0443567 -0.0540411 -0.0185982 0.051234 -0.0604185 0.0389478 -0.0700511 0.0467125 0.0734713 -0.0602885 0.0861312 -0.0396495 -0.0575951 0.0440968 0.0051009 -0.030348 0.0346273 -0.0803103 -0.00967736 0.0563423 0.0283676 -0.0142037 -0.0374393 -0.00576907 0.0475544 0.0381486 0.139707 0.199426 0.0190814 0.00432936 -0.0486215 0.00406849 0.0486358 -0.164285 0.0288028 -0.0172523 0.00252459 0.0265384 0.0314269 -0.00905311 0.061713 -0.0132964 0.0503736 -0.0475845 0.0133697 -0.0114783 -0.0631416 0.0335366 0.0145911 0.070768 0.279217 0.358778 0.409052 0.464394 0.316863 0.377717 0.240063 0.137189 0.0457153 0.100636 -0.0219725 -0.173053 -0.158018 -0.148979 0.0151821 -0.00162122 -0.0602691 -0.000967322 0.00565899 0.0212611 0.00819101 -0.00589903 0.027787 0.0500234 0.088788 0.22468 0.278175 0.260333 0.220092 0.217622 0.437464 0.243673 0.383333 0.483271 0.29538 0.313052 0.192179 0.0656114 -0.234245 -0.323211 -0.348784 -0.123427 -0.03433 -0.0429399 -0.0116904 -0.0766508 -0.0118814 0.0575131 -0.00741393 -0.0756827 0.0247729 0.0237078 0.0396524 0.0699754 0.111227 0.393512 0.183154 0.028333 0.0996149 0.215896 0.342571 0.48972 0.450642 0.335204 0.169371 0.122206 -0.0011132 -0.102758 -0.145286 -0.0101504 0.0468233 0.027805 0.0227883 -0.000525761 0.038178 0.0337799 0.0320376 0.000343694 0.0625695 -0.00660708 -0.110494 -0.133405 0.0925362 0.167483 0.214912 0.188465 0.421623 0.254765 0.225008 0.224361 -0.0557353 0.339024 0.255492 0.238488 0.00619413 -0.0609198 -0.139229 -0.0508092 0.127526 0.0524875 0.0315241 -0.0453122 0.00934664 0.0137032 0.0365784 0.128243 0.0625284 0.145852 0.0400118 0.00255188 0.186285 0.228374 0.0918971 -0.0608139 -0.161699 0.00661668 0.0916452 0.189702 -0.0494928 0.0838559 0.343429 0.0437822 -0.0872244 0.0545093 -0.151866 -0.0562227 0.0662455 -0.0067397 0.0169761 0.00671502 -0.0159128 -0.011394 0.0439087 0.136346 0.0598268 0.0620428 0.0896233 0.21482 0.0545397 -0.0743962 -0.369108 -0.621324 -0.824583 -0.622382 -0.0360104 0.318174 0.191466 0.0995231 -0.0353037 -0.134112 -0.089526 0.039618 -0.260009 -0.242609 -0.0944397 -0.0200117 0.00147428 0.00524988 -0.0265796 0.0694983 0.109449 0.0174827 -0.0230713 -0.0588228 -0.0361405 -0.130391 -0.468984 -0.779619 -1.00406 -1.20677 -1.58703 -1.38173 -0.0444192 0.567977 0.43998 0.258837 -0.145594 -0.198948 -0.0489322 -0.0540474 -0.289791 -0.180378 -0.0421786 -0.0572602 0.0149481 0.0148002 -0.0355644 -0.0245335 0.0559399 -0.0403283 -0.0446646 -0.14834 -0.465892 -0.755358 -1.17299 -1.59287 -1.37323 -1.1831 -1.39663 -0.934317 -0.240773 0.241174 0.485107 0.33764 0.0468508 -0.0856886 -0.0822531 -0.26165 -0.286343 -0.0668961 0.0246997 -0.0183421 -0.0149763 -0.0546753 0.0602561 -0.00292886 -0.0309 -0.160961 -0.282422 -0.408521 -0.720486 -1.0539 -1.22864 -0.889371 -0.567231 -0.287604 -0.315822 -0.472289 -0.160486 0.0542621 0.0519992 0.289549 0.234268 0.200163 -0.0332183 -0.12679 -0.174081 -0.0660888 -0.0321758 -0.00369983 0.0409569 0.0277268 0.0130992 0.0391754 -0.000484906 -0.279932 -0.496638 -0.777297 -0.785156 -0.686253 -0.434187 0.093901 0.450904 0.270287 -0.134263 -0.275337 -0.0962798 0.186406 0.18694 0.274099 0.262519 0.0278596 -0.172179 -0.218778 -0.230298 -0.0643305 0.0301531 -0.0174071 0.0188851 -0.0292176 -0.0306276 -0.00203956 -0.0315322 -0.0713714 -0.480507 -0.626635 -0.406429 -0.134356 0.135719 0.32711 0.178574 0.0294213 0.1512 -0.050307 -0.134351 -0.00670858 0.109012 0.230862 0.0954954 -0.177342 -0.204388 -0.26807 -0.318613 -0.196268 0.0338518 -0.0259436 -0.0270872 0.0839172 0.0894483 0.0179424 0.0365253 0.00054804 -0.22967 -0.223359 -0.0813936 0.116109 -0.145948 -0.287393 -0.282763 -0.108463 -0.0855273 -0.108632 -0.0178188 0.0659681 -0.0872087 -0.0252588 -0.141208 -0.141752 -0.0798996 -0.24108 -0.379817 -0.24437 -0.101225 -0.0183384 -0.0177401 -0.0217419 -0.0629638 0.0151605 0.136068 0.161846 0.137259 0.106363 0.067365 -0.0352096 -0.212907 -0.412407 -0.244743 -0.287836 0.0309194 -0.0727784 0.182653 0.186835 -0.263381 -0.254053 -0.296933 -0.197708 -0.179598 -0.171371 -0.188138 -0.0505907 -0.0771948 0.039252 0.0272548 -0.012365 0.0255994 -0.00892561 0.152603 0.152331 0.0681954 -0.103745 -0.242545 -0.151062 0.0927493 -0.214845 -0.241846 0.00283585 0.173163 -0.0980056 0.0823758 -0.143963 -0.106941 -0.258739 -0.00477788 -0.181811 -0.174665 -0.247081 -0.157284 -0.0350809 0.11281 -0.0173347 -0.0277654 0.0101034 -0.0202061 0.0167517 0.23091 0.211003 0.11542 -0.0694796 -0.178087 -0.202114 -0.0589573 -0.178178 -0.154204 0.0942629 0.06657 0.366517 0.47389 0.0232739 -0.0687801 -0.101094 -0.0612524 -0.337007 -0.327415 -0.235672 -0.294453 -0.0947881 0.0477595 -0.0313224 0.0184061 0.00396733 0.0103899 0.0333392 0.22784 0.2623 0.188308 0.0589764 -0.124327 -0.0072704 -0.0196238 -0.223905 -0.0980687 -0.0796465 -0.102655 0.22196 0.283361 0.168946 -0.0570931 0.272007 0.123596 -0.220545 -0.276224 -0.0912637 -0.170061 0.0695467 0.0701874 0.0393318 0.0668323 -0.0204015 0.014592 -0.00168662 0.215603 0.308246 0.0592094 0.00358302 0.0692809 -0.0886963 0.0242179 -0.120677 -0.057516 -0.0612788 -0.0642074 -0.014763 0.161887 0.379026 0.28244 0.34907 0.177358 0.0881495 -0.0506584 -0.141548 -0.0945736 0.070049 0.0805352 0.0150997 -0.0660909 0.00556185 0.0311192 -0.000848715 0.255814 0.415824 0.187501 0.0332412 0.00736256 0.0432225 -0.0269902 -0.012976 0.298112 -0.152579 -0.0278407 -0.00588539 0.132973 0.351302 0.173868 0.286254 0.267036 0.227086 0.109382 -0.0337758 -0.0535622 -0.0159167 0.00291354 0.0108757 0.0514511 0.0253071 -0.0126694 0.00444599 0.122221 0.385342 0.191638 0.0741007 0.0531234 -0.0484336 -0.186591 0.0396058 -0.123703 -0.27391 0.267919 0.24421 0.013447 0.229658 0.222878 0.410387 0.50266 0.193079 0.132746 0.113222 0.0877153 0.0421976 0.020316 0.00541404 0.0355218 0.0272544 -0.0209591 -0.00516267 0.0426315 0.191516 0.266724 0.17928 0.100308 0.0554583 -0.0622328 -0.00949738 -0.171166 -0.137594 0.0720481 0.240481 -0.00896298 -0.100242 0.0758486 0.29797 0.486917 0.405384 0.321557 0.176837 0.153415 0.132542 0.000578474 0.015088 0.0808158 0.0322835 -0.0509221 0.046063 0.114068 0.143915 0.241594 0.030626 0.221891 0.0485263 -0.0920587 -0.0914978 0.0547507 0.00342307 -0.0684308 -0.00158123 -0.00141887 0.00324837 0.121307 0.470569 0.407209 0.214812 0.28896 0.245553 0.114506 0.0778855 -0.0239018 -0.0378174 -0.0286913 -0.0480088 -0.00575282 0.0683611 0.0530757 -0.0016492 0.0387506 -0.0543141 0.0667545 0.102593 0.136969 0.0382051 -0.0558342 0.0915744 0.210479 0.270445 0.27466 0.221288 0.353402 0.1927 -0.0535488 -0.0422939 0.113199 0.14535 0.0393337 0.0523362 -0.0297315 -0.0249709 -0.0443691 0.04508 0.042142 -0.0137538 -0.0593046 0.0188052 0.0116347 -0.00131477 -0.0830089 -0.0254593 -0.00544902 0.0645433 -0.0947537 0.0407702 0.0495177 0.0530202 0.0232663 0.0769922 -0.0252216 -0.0999431 -0.0968169 -0.0657328 -0.0139779 -0.0259503 -0.100369 -0.0758704 0.0345216 0.0423147 0.0243298 -0.0157355 0.0336359 -0.0454647 -0.0018623 0.0190694 -0.0294571 -0.0713769 -0.0649623 -0.0203299 -0.0403973 0.0602563 -0.0427378 -0.0288935 -0.000631306 0.00483051 -0.0366888 -0.0219468 -0.0677391 -0.0424974 0.010858 -0.03144 0.0209341 0.0175262 0.0170896 0.00139478 0.0240548 -0.0041622 -0.0265974 0.0151116 -0.00785595 -0.0347024 -0.0379808 -0.0110987 0.0334081 -0.00413055 -0.00683106 0.0233805 -0.0207371 -0.00552902 -0.0150742 -0.031643 -0.0240946 -0.00509779 -0.0170402 -0.0222868 -0.012403 0.0406599 0.00549536 -0.0177622 -0.0236246 0.0140947 0.035283 -0.0198093 0.0130009 0.0176769 -0.0112506 
0.046201 0.00454785 -0.0426427 -0.00579185 0.00324459 0.0469946 -0.0109947 0.0101097 0.0626026 -0.0276257 0.0161732 -0.0363031 0.0268579 -0.0532155 0.00594986 -0.0456407 0.00269161 -0.0553018 0.0342328 0.0189382 -0.0399264 -0.081589 0.0547565 0.0874265 0.00629263 -0.0100993 0.0430466 0.0763147 0.09551 -0.0358363 0.00964756 0.00196124 -0.0267521 -0.0202465 0.025718 -0.0182777 -0.0344539 -0.0877061 -0.00349095 -0.0109232 -0.0396937 -0.00734928 0.0420525 -0.0364008 -0.00282517 -0.00190184 -0.00409785 -0.0951341 -0.0818012 -0.0718283 0.014048 0.00942537 0.0228009 -0.0275868 0.00431354 0.0716953 -0.0197175 0.0508176 0.00469223 -0.0133716 -0.0262962 -0.0421767 -0.0622784 0.0046814 0.0530822 0.0558307 -0.0521256 0.119778 0.0463579 -0.186221 -0.103561 -0.0697284 0.0136639 -0.0537325 -0.0236548 -0.285212 -0.170371 -0.162156 -0.172682 -0.0976874 -0.00656177 0.0175477 0.00279474 0.0638144 -0.0379247 -0.00857748 -0.0156074 -0.011847 -0.0686597 -0.0220724 -0.0908954 0.0340122 0.126212 0.277792 0.389013 0.321607 0.242464 0.0468002 -0.156681 -0.207464 -0.0188373 -0.120177 -0.26817 -0.305756 -0.283196 -0.326879 -0.231035 -0.100876 -0.046464 0.034913 -0.0453876 -0.0545651 -0.0218631 -0.0624185 -0.0217446 -0.0100298 -0.0164727 0.0499374 -0.00770383 0.0654522 0.13664 0.414767 0.468974 0.373799 0.397297 -0.0687014 -0.162853 -0.205205 -0.276131 -0.174199 -0.392699 -0.25556 -0.315964 -0.374724 -0.363432 -0.234123 -0.0850401 0.0100678 -0.00650873 -0.00252682 0.0254519 -0.0384036 -0.00858898 -0.0249599 -0.0474187 0.0825373 0.00221079 0.0652937 -0.056851 0.0931273 0.224102 0.0563213 -0.118934 -0.073212 -0.223489 -0.31295 -0.459451 -0.316429 -0.346362 -0.224032 -0.321589 -0.349563 -0.292097 -0.183833 -0.10754 0.00970496 -0.00024686 0.00530853 -0.0272843 0.0189176 -0.0213084 -0.0271305 -0.03399 -0.0267018 -0.0308812 -0.108779 -0.140279 -0.0611555 -0.0987933 -0.244452 -0.398128 -0.0736138 -0.192737 -0.413855 -0.41602 -0.387883 -0.274468 -0.148769 -0.165775 -0.316583 -0.302128 -0.335192 -0.209319 -0.0686998 -0.0661357 0.0816377 0.0423643 -0.0225719 -0.00498352 -0.0328393 -0.0502104 -0.101907 -0.0734825 -0.164952 -0.228574 -0.191418 -0.157737 -0.105013 -0.261343 0.0213041 0.0372839 -0.223658 -0.255761 -0.402962 -0.370024 -0.154563 -0.113654 -0.0396458 -0.0974075 -0.381822 -0.0775376 0.0438546 0.0124968 -0.0433493 0.00611771 -0.0424981 -0.0135 -0.0125089 -0.0302982 -0.163333 -0.291002 -0.20256 -0.190722 -0.282096 0.0197172 0.166026 0.201009 0.0901822 0.118931 0.183709 -0.280847 -0.131292 -0.338983 -0.231888 -0.0312334 0.0996073 0.22237 0.10572 -0.0877069 0.122287 0.0349448 0.0122599 0.0502149 -0.0558954 0.0124801 -0.00628761 -0.0274389 -0.268508 -0.193261 -0.259864 -0.227242 -0.120098 0.12136 0.0847013 0.269243 0.266205 0.561841 0.370669 -0.159072 0.0880646 -0.19789 -0.155084 -0.0286674 0.126102 0.302078 0.183286 0.0821035 0.153174 0.0292301 -0.018031 0.0164186 -0.0266603 -0.046988 -0.0402359 -0.113606 -0.226249 -0.149514 -0.251141 -0.365876 -0.11645 0.0886829 0.359093 0.417775 0.300435 0.623426 0.552659 0.175643 -0.00838231 -0.137076 -0.0705975 0.139581 0.321055 0.125473 0.190826 0.0825663 0.188222 0.0675611 0.0103749 -0.0588407 -0.00701737 0.0424623 -0.122353 -0.208281 -0.262287 -0.420516 -0.565845 -0.516061 -0.546697 -0.417675 0.0190655 0.153354 -0.0851413 0.121846 -0.0353135 0.0868232 -0.158898 -0.401996 -0.389988 0.131081 0.221447 0.0782978 0.00321904 0.0400568 0.0434008 0.0422962 0.0369663 0.0196632 0.00880981 -0.0339575 -0.0411568 -0.145285 -0.482485 -0.751443 -0.864727 -0.796554 -0.829613 -0.456825 -0.168385 -0.272271 -0.30515 -0.156531 -0.254414 -0.0442328 -0.388683 -0.536519 -0.56218 -0.393786 -0.365031 -0.17126 -0.306889 -0.0996671 0.0841508 0.126671 0.0135339 0.00438605 0.00899518 0.0149188 -0.0982384 -0.158299 -0.455415 -0.561973 -0.546803 -0.388128 -0.0691821 0.063407 0.195029 -0.0382793 -0.0455821 -0.277737 -0.393887 -0.236465 -0.380946 -0.465377 -0.605487 -0.347144 -0.173249 -0.152322 -0.144571 0.151717 0.18696 0.211906 0.0344344 -0.0531977 -0.000188249 -0.00204012 -0.0231727 -0.100647 -0.255076 -0.32918 -0.182223 0.159595 0.330441 0.276132 0.372497 0.166068 0.208415 -0.0610801 -0.335658 -0.0605779 -0.200113 -0.211895 -0.398514 -0.11965 -0.0571948 -0.0406922 0.181437 0.353656 0.152898 0.231646 -0.0390496 0.050984 -0.00378558 -0.0184326 0.0155757 0.08347 0.0709026 -0.0479178 -0.0238942 0.0843916 0.343483 0.510512 0.211733 0.152012 -0.0203703 -0.302688 -0.14349 -0.0970777 -0.0614341 -0.147177 -0.0148555 0.0651642 0.150622 0.0666623 0.225783 0.330886 0.152676 0.0970714 0.0254485 0.00256328 -0.0324687 -0.0329603 0.115959 0.224632 0.113477 0.243126 0.197726 0.177734 0.241496 0.181884 -0.159453 -0.392177 -0.133232 0.0578121 0.0910139 -0.0773938 0.000331261 -0.344661 -0.420662 -0.150195 0.147308 0.2446 0.332368 0.308256 0.253483 0.151395 0.0262861 0.0573388 0.0254104 -0.0424952 0.229456 0.378798 0.483412 0.360287 0.13262 0.0986724 0.474645 0.459273 0.0984603 -0.0824438 -0.0648679 0.0503208 0.280883 -0.247746 -0.265867 -0.115662 -0.187061 0.152351 0.285669 0.247097 0.241884 0.275361 0.315277 0.168929 0.0774232 0.0179588 -0.00715334 0.0262833 0.267181 0.556504 0.525629 0.263362 0.371969 0.345102 0.637862 0.562314 0.292289 -0.0127853 -0.268815 -0.155436 -0.199504 -0.335693 -0.0299195 0.0476882 0.0116311 -0.0365002 0.0450142 0.197964 0.306006 0.392178 0.387431 0.0535125 0.047349 0.0430736 -0.0368085 -0.0429818 0.240551 0.415313 0.285512 0.204974 0.354978 0.257297 0.306919 0.336903 0.21456 -0.0582465 -0.207352 -0.32319 -0.288549 -0.0158768 0.187901 0.113073 -0.0647303 -0.0739368 -0.183925 -0.0223915 0.250776 0.277038 0.205341 0.0464538 -0.0338099 -0.010779 0.0349369 0.0215662 0.218762 0.352255 0.197907 0.0771541 0.170549 0.237198 -0.0561871 -0.144176 0.00444584 -0.158431 -0.50615 -0.602437 -0.622063 -0.546054 -0.571316 -0.531161 -0.597059 -0.4613 -0.379469 -0.108742 -0.0150412 0.176792 0.0899012 0.0551622 0.000439043 0.0396234 0.0162685 -0.0234766 0.0384642 0.21387 -0.00217068 -0.148531 -0.363878 -0.440097 -0.513651 -0.399137 -0.272453 -0.29559 -0.436067 -0.298684 -0.362481 -0.498098 -0.455592 -0.397899 -0.297804 -0.299802 -0.175163 -0.0705544 0.0663223 0.146593 0.131671 -0.00270858 -0.0797049 -0.0496785 0.0660525 0.0768886 0.085033 0.0598217 -0.0103721 -0.214267 -0.473919 -0.511097 -0.485869 -0.327155 -0.209198 -0.220305 -0.362589 -0.207205 -0.213605 -0.266413 -0.284081 -0.175229 -0.246725 -0.235984 -0.0280921 -0.00839921 0.0338973 0.0247311 0.0117996 -0.0403639 0.0168508 0.0355392 -0.0594485 -0.0208876 -0.000629342 0.0471347 -0.0184136 -0.185492 -0.402988 -0.467823 -0.515616 -0.408484 -0.372812 -0.326693 -0.27264 -0.235525 -0.282439 -0.263993 -0.428722 -0.400127 -0.423314 -0.266415 -0.186656 -0.1083 -0.138777 -0.0316877 -0.0577249 -0.035491 -0.0191012 0.00292195 0.00270268 -0.00448336 -0.00701881 -0.0761576 -0.0302799 -0.184126 -0.218884 -0.178387 -0.25858 -0.232668 -0.295425 -0.195457 -0.206095 -0.281215 -0.311695 -0.365168 -0.283923 -0.169824 -0.0756775 -0.136453 -0.224333 -0.2179 -0.0777133 -0.0529123 0.0418768 0.0222469 0.00247056 -0.0332227 0.0581708 -0.0161565 0.0160974 0.00229586 -0.0489456 -0.0262431 0.000464679 -0.064232 -0.0806046 -0.0868366 -0.0714448 -0.108056 -0.107683 -0.166767 -0.198422 -0.0178285 0.0192358 -0.142426 -0.108157 -0.0899154 -0.0675702 -0.000292847 -0.0574206 -0.00916811 0.0578876 0.0209332 -0.00814849 0.0484652 -0.00906633 0.0165915 0.000847812 -0.0383546 0.0324194 -0.0244454 -0.00958387 0.00489099 0.0267858 -0.0203464 0.00719697 -0.0211494 0.0115149 0.0449914 -0.0310844 0.0355245 0.0305143 -0.0199249 -0.011161 -0.0137526 -0.019201 -0.0321821 -0.0203041 0.0302443 0.0557368 -0.00132171 -0.0547934 0.00552175 0.0138861 -0.0155948 0.0232509 0.0455906 0.0790393 0.0406089 -0.00673494 0.0338899 -0.0243523 0.0263206 -0.0657038 0.0389788 -0.0234228 0.0147505 -0.00877018 0.0509211 -0.0116728 -0.0328945 0.00630881 -0.0164267 -0.0266099 0.00708937 -0.0508594 0.0532369 0.0333691 -0.0153587 0.0466876 
0.0314446 -0.00689195 -0.0216127 0.0853574 -0.0111886 0.00610066 -0.0314951 0.0077221 -0.0357451 -0.0657655 0.0136632 -0.0171622 -0.0216986 -0.0250063 -0.0114982 0.0473585 -0.0101111 -0.0123227 0.00875386 -0.0108919 0.031072 0.0239074 -0.0190696 -0.0510289 -0.0375224 -0.0483232 -0.0179677 -0.0235413 -0.0820041 -0.0145479 0.0541022 0.0782389 0.0841658 -0.0237199 0.0323499 0.0161761 -0.0269148 -0.0148104 -0.010319 0.0298578 0.037307 0.0754995 0.0346213 0.0115838 0.0284118 -0.0102001 0.0203209 0.0334855 0.0289365 -0.0249225 -0.00490397 -0.0622644 -0.0366997 0.0344646 -0.0371594 0.00593633 0.0231444 0.0545937 0.0205484 -0.0410692 -0.0220232 0.00342236 0.0296109 0.00410729 0.0454293 0.0231953 0.00312006 0.113959 0.174627 0.22716 0.145399 0.111411 0.201846 0.152835 0.180002 0.188495 0.0955005 0.0881438 0.0440538 -0.023747 -0.0383281 -0.00422538 -0.040103 0.0360506 0.0226779 -0.0441623 -0.040285 -0.0185063 0.00616163 -0.0135018 0.0332953 0.117639 0.100273 0.180012 0.128679 0.0113014 0.0862931 0.200905 0.0731706 0.250545 0.190184 0.18039 0.232796 0.116259 0.189226 0.233206 0.164301 0.158989 0.0810315 -0.0510859 -0.016808 -0.0509021 0.0151015 -0.0142989 0.00661601 0.00461795 -0.0244115 0.0101437 0.0131415 -0.0501687 -0.0563405 -0.0156495 0.197284 0.0832641 0.0180232 -0.0952477 0.177096 0.331742 0.304329 0.388945 0.282476 0.187681 0.110187 0.0577767 -0.0258809 -0.0335915 -0.0454064 -0.0482844 -0.0617046 -0.0533881 0.0281567 0.0132266 -0.0112984 0.05245 0.0442533 0.0728727 0.11727 0.0343003 -0.0294029 0.0718142 0.143857 0.137662 0.0646428 0.23611 0.27788 0.189707 0.626848 0.764933 0.274651 0.026493 -0.0162962 -0.289723 -0.309601 -0.221163 -0.10601 -0.0893698 -0.0722881 -0.0350463 0.0107119 -0.00750151 0.00792109 -0.0180262 -0.0386095 0.128501 0.194392 0.172115 0.173906 0.0439708 0.153644 0.0239873 0.129628 0.110482 0.0112426 0.121888 0.264877 0.272098 -0.147107 -0.514908 -0.579578 -0.564221 -0.577442 -0.439552 -0.150914 0.00597294 -0.00987478 -0.00310222 -0.00672212 0.0173636 -0.0676981 -0.0184623 -0.00132956 0.0505584 0.0794681 0.156986 0.159712 0.111866 -0.0455346 -0.156624 -0.303952 -0.381687 -0.600613 -0.331824 -0.445927 -0.525397 -0.603906 -0.89755 -0.827581 -0.662719 -0.818475 -0.503493 -0.19222 -0.0263999 -0.131754 0.0392006 -0.00364938 0.0280946 0.0300647 -0.0360769 -0.0201934 -0.0407619 0.0726877 0.156994 0.151104 -0.0588966 -0.341838 -0.113745 -0.474786 -0.731755 -0.973146 -0.867846 -0.928784 -0.981848 -0.967309 -0.840513 -0.754447 -0.78807 -0.727006 -0.410679 -0.18892 -0.122462 -0.0112594 0.01367 0.00688455 -0.00211912 -0.00840195 -0.00323137 -0.00268132 -0.135158 -0.0565455 -0.0222959 0.0884216 -0.259534 -0.210485 -0.0550436 -0.189191 -0.673956 -0.685921 -0.87148 -1.19371 -0.98931 -0.853614 -0.560369 -0.443791 -0.488981 -0.476359 -0.291787 -0.132605 -0.106271 -0.0730909 -0.0761926 -0.0623628 0.00998639 0.021858 -0.0403722 -0.0865327 -0.155571 -0.061892 -0.0381623 -0.10978 -0.341996 -0.124413 -0.0857565 0.0140014 -0.109516 -0.157674 -0.388093 -0.539916 -0.292434 -0.28893 -0.0977344 -0.0332118 -0.183514 -0.329299 -0.000965636 0.00384217 -0.078928 -0.0156134 -0.078196 -0.0428011 -0.0281108 -0.0525807 -0.072842 -0.0950089 -0.223543 -0.140034 -0.034614 -0.369704 -0.20975 -0.080894 -0.138603 0.196365 0.350981 0.242048 -0.329183 0.131264 0.368134 0.294649 0.414615 0.343408 0.131911 -0.0692197 0.163434 0.2994 0.0853512 0.0398221 0.0418366 0.0174967 -0.00621713 0.0650018 -0.0330713 -0.0257509 -0.20707 -0.233955 -0.23313 -0.454295 -0.293643 -0.0259879 0.0367607 -0.0374339 -0.171173 -0.180197 -0.105368 0.414736 0.366042 0.213086 0.282205 0.383784 0.0539813 0.0878182 0.321183 0.203761 -0.0621353 -0.0843787 0.0765434 0.00919409 -0.0504513 0.0381917 0.0422692 -0.0172824 -0.0935858 -0.0620739 -0.238267 -0.279072 -0.298692 -0.00135645 0.165459 -0.097918 -0.461675 -0.385573 0.081183 0.391049 0.0237575 0.0432481 0.0196926 -0.0404922 0.182401 0.236826 0.386424 -0.0536664 0.00735999 0.017285 -0.0333469 0.00876156 -0.0426497 0.0570414 0.0149285 -0.112978 -0.222017 -0.067652 -0.14422 -0.20147 -0.187981 0.133347 0.103591 -0.247086 -0.0499221 -0.215112 0.303722 0.311848 -0.0981152 0.073188 -0.0734709 -0.0178447 0.280371 0.349764 0.198962 -0.00371992 0.0159798 -0.0166853 -0.028419 0.00990998 -0.0330276 0.0114658 -0.083953 -0.13815 -0.24424 -0.0847193 0.0118241 -0.165418 -0.346869 -0.123322 -0.173266 -0.0848998 0.0629579 0.0590062 0.150808 0.18274 -0.108915 0.15332 0.169721 0.265179 0.269059 0.195855 0.142041 0.105199 0.0711914 -0.0304322 -0.0660874 0.00198286 -0.0234284 -0.0387645 -0.0753273 -0.178372 -0.312254 -0.0430668 -0.010659 -0.183194 -0.277791 -0.0508395 -0.0997656 0.106382 0.222821 0.255182 0.220592 0.122177 0.0481198 0.143611 0.22203 0.208339 -0.153569 -0.177816 -0.0716115 0.132739 0.039383 -0.043323 -0.0906149 -0.0216273 -0.00477826 -0.0806013 -0.105038 -0.179098 -0.260082 -0.0411186 -0.0522186 -0.175553 -0.505342 -0.0803139 0.265643 0.40745 0.308801 -0.0373445 -0.0265612 0.026449 -0.0037895 0.217086 0.145639 0.140314 -0.0928625 -0.262546 0.0467601 0.0841485 -0.0252689 -0.00854524 0.058401 0.0447927 0.00904973 -0.00165769 -0.0566169 -0.139395 -0.202264 -0.136795 -0.200624 -0.368076 -0.295264 0.137977 0.405697 0.413513 -0.119533 -0.137274 -0.0803017 -0.0381212 -0.0711422 0.0916026 -0.0936245 -0.227286 -0.274217 -0.14245 0.0987122 -0.0416175 -0.000681423 0.00178645 0.0503277 -0.0176279 0.0734658 -0.0247599 -0.0345597 -0.144257 -0.14171 -0.0847201 -0.319137 -0.321004 -0.310577 0.290858 0.580418 0.551823 0.145471 0.116521 0.187894 -0.0427205 0.0259759 -0.13997 -0.141003 -0.118844 -0.0624207 0.0588126 0.0442913 -0.105124 -0.116269 -0.0095675 0.0461787 -0.0139266 0.0168494 0.00294436 0.0429031 -0.0274184 -0.0608803 -0.125326 -0.129807 -0.0804936 -0.0137421 0.30803 0.264409 0.301523 0.295175 0.0461124 0.0740665 -0.189062 0.0310915 -0.148663 -0.132327 -0.14637 -0.110642 -0.00123389 0.0236401 0.0361564 0.0513372 0.0389319 -0.0113773 0.00907737 -0.0349324 -0.0856934 -0.0558816 -0.0635385 -0.0538528 0.056457 0.0750677 0.0769997 0.102769 0.0800913 0.25779 0.195518 0.169367 0.0394372 0.000719144 -0.0822549 0.0596794 -0.0277812 -0.0870477 -0.131046 -0.235675 -0.173631 -0.0607218 0.0460453 0.0838508 0.0892703 0.042528 -0.00145272 -0.0216118 0.028026 -0.0327969 0.0304437 0.0544407 -0.0646028 -0.134803 -0.117514 0.0482727 -0.185575 -0.285626 -0.0894737 -0.029315 -0.0746987 0.0889277 -0.0513196 -0.102169 -0.222355 -0.268355 -0.20593 -0.240982 -0.193298 -0.103336 -0.00835192 0.073787 -0.0527516 -0.0474829 0.00730929 0.0267893 0.0147349 -0.0175475 0.0429309 -0.0322993 -0.080886 -0.253069 -0.154029 -0.0134275 -0.0890746 -0.390102 -0.332512 -0.201758 -0.0105631 -0.0514883 -0.339645 -0.396192 -0.301995 -0.411505 -0.107508 -0.123178 -0.131858 -0.10112 -0.0226174 0.00698706 0.0130145 0.00574025 0.0268721 -0.0167811 0.0466088 -0.00616714 -0.0299575 -0.0416684 0.058443 -0.105244 -0.0700007 -0.0518423 -0.0986574 -0.126905 -0.00182247 0.109008 0.0831465 -0.0533088 -0.271954 -0.199872 -0.120818 -0.0655229 -0.0158112 -0.0243846 -0.0281764 -0.0620369 0.00426698 -0.0460373 -0.0282161 0.0234378 -0.0287283 0.0331762 0.0363948 -0.00834119 -0.0566288 -0.00203997 -0.0324793 -0.0587465 -0.0480126 -0.0393257 0.00707709 -0.0199407 -0.00981395 0.00900852 -0.0296672 -0.159143 -0.0697401 -0.079785 -0.0578032 -0.0979806 0.04452 0.00693042 0.0368841 -0.0469884 0.037607 0.00539529 0.0474505 -0.0282068 0.0516875 0.0195992 0.00250159 0.0173221 -0.00224907 -0.0318332 -0.0727765 -0.0316361 -0.0729659 0.018457 0.01833 -0.0342366 0.0577135 0.05551 -0.0347795 -0.0111603 0.0306476 -0.00768387 -0.064649 -0.0755167 -0.00606069 -0.00926464 -0.00226848 -0.00826409 0.0338986 -0.0221552 -0.045284 0.0573909 0.0310069 0.00648309 0.00250426 0.0165349 0.0265226 0.00249282 -0.0176563 -0.0165358 0.0152552 -0.0610377 0.031276 -0.0324198 0.00752056 0.00694927 -0.00757845 0.0122252 -0.0812279 -0.0507771 -0.0463804 -0.0234108 -0.0625118 0.0457508 0.0105382 0.0237943 0.0709949 -0.0136854 0.010867 -0.0412378 
0.034554 -0.0430987 0.00903369 0.0323365 0.0181844 0.0102676 -0.0176794 -0.0412981 0.0204208 -0.0409197 -0.00430092 0.0093999 0.00925628 0.00392818 -0.0146503 -0.0121561 -0.084523 -0.0227184 -0.0087925 0.00393672 -0.0212508 0.0351293 0.0251005 -0.0178972 -0.0626947 -0.0548498 -0.0204824 0.0103464 0.0475561 -0.00754428 0.036643 -0.0583087 -0.00272377 0.0171799 -0.0595432 -0.0324309 -0.00565069 0.00195047 0.0438242 -0.012131 -0.0139656 -0.0282087 -0.0386891 0.0318851 0.0570408 -0.012723 -0.0198036 0.0218105 -0.0072922 -0.0505274 -0.0179547 -0.0116527 0.0350984 0.0210366 -0.00830333 0.0209611 -0.0462614 0.000183295 0.0427559 -0.0219201 0.00141114 -0.0170365 0.0261571 -0.022799 -0.0326072 0.0105873 0.00390512 -0.0941501 -0.044759 -0.0631586 0.00130388 0.0227619 -0.00742488 0.0565598 0.0661348 0.0130397 -0.0450598 -0.0437995 -0.0609608 -0.0700922 -0.0187925 0.0247051 -0.00654868 0.0167892 -0.0782177 0.0269596 -0.0111034 0.0227512 -0.0141648 -0.0633289 0.0237435 -0.0515952 -0.102133 -0.133144 -0.151923 -0.115399 -0.0568801 -0.177713 -0.0545284 -0.0618988 -0.163469 -0.112369 -0.0408678 -0.0521504 -0.0479495 0.0146531 0.0626655 -0.0113722 -0.0177348 -0.0683948 -0.0342022 0.0122284 0.0703195 -0.00520725 -0.0136897 -0.0774618 -0.0275135 -0.0698906 -0.0626217 -0.0367995 -0.0852843 -0.0766344 -0.0459748 -0.0310548 0.0113985 -0.195342 -0.0264583 -0.235951 -0.319875 -0.426184 -0.358683 -0.312636 -0.240357 -0.093311 -0.146306 0.0222154 0.0741954 0.044656 0.00978775 0.0439256 -0.0164357 0.0310283 -0.0174674 0.00225661 -0.036236 -0.0618906 -0.165547 0.0180617 0.0185181 0.0554387 0.0362686 0.123057 -0.032329 -0.366981 -0.180575 -0.385344 -0.306439 -0.176511 -0.193996 0.0118909 0.169694 0.100156 0.0464437 0.0724526 0.00186774 0.0468471 0.0407313 0.0148564 0.0272759 0.0246186 0.00027788 -0.0504041 -0.172613 -0.0926528 -0.160146 0.0227566 0.151026 0.308337 0.137595 -0.0327849 -0.352418 -0.620408 -0.41948 -0.454624 -0.42757 -0.300426 -0.288032 0.0776853 0.248039 -0.0163097 0.0967673 0.351818 0.29791 0.203446 0.112545 0.0141591 0.0171965 -0.0549497 -0.0493993 -0.0575566 -0.203737 -0.124159 -0.121841 0.22677 0.673552 0.144629 -0.122849 -0.347224 -0.771889 -0.473735 -0.206008 0.011943 -0.22537 -0.0373033 0.0318046 -0.233695 -0.142369 0.434708 0.268324 0.377206 0.477085 0.266986 0.0740734 0.0515467 0.0220884 -0.0248846 -0.0189401 -0.0653396 -0.25292 -0.0882403 0.0487087 0.369423 0.22839 0.13254 -0.230872 -0.634267 -0.72896 -0.260819 -0.0437986 0.304265 0.229772 -0.0315175 -0.215775 -0.0660401 -0.245962 0.139104 -0.0306342 0.383744 0.555429 0.291465 0.0375151 -0.0282167 0.0395257 -0.00529542 0.0150627 -0.129591 -0.20256 -0.184069 0.0535447 0.132615 0.336578 0.217473 -0.0420436 -0.112043 -0.653549 -0.684085 -0.39832 0.148914 0.326701 0.093702 -0.298736 -0.175867 -0.0789782 0.222119 0.219706 0.26734 0.475712 0.191444 0.0570265 -0.00645007 -0.0112239 0.0303375 -0.0253351 -0.121033 -0.0429395 -0.181745 0.0754357 0.256654 0.514332 0.563103 0.450993 -0.147174 -0.912825 -0.887363 -0.60932 -0.161178 -0.344794 -0.455628 -0.2583 -0.115668 -0.172094 0.143901 0.168799 0.216833 0.242586 0.0916253 0.154492 -0.0525007 -0.0699639 0.0166728 -0.0645361 -0.0806596 -0.0349942 0.115666 0.379692 0.543928 0.647109 0.764074 0.828976 0.168701 -0.575749 -1.07656 -0.9901 -0.842018 -0.773785 -0.859284 -0.558906 -0.386097 -0.384891 -0.137898 -0.0805555 -0.0158434 0.144639 0.0345502 0.0851581 0.00333232 0.0473946 0.0451784 -0.092756 -0.109808 -0.0581996 0.381796 0.598548 0.501083 0.549299 0.672566 0.884618 0.558269 0.31322 -0.631522 -0.927335 -0.471681 -0.389918 -0.657229 -0.529881 -0.0532106 -0.0860151 0.0029331 -0.0365562 -0.129576 -0.0515143 0.0555055 0.100278 0.0109717 0.00334018 -0.0327742 0.0359398 -0.0913513 -0.0774252 0.353771 0.558958 0.362989 0.622735 0.622725 0.504496 1.18914 1.05241 -0.0101623 -0.39718 -0.346632 -0.548592 -0.229584 0.134302 0.232456 0.328467 0.130452 -0.108733 -0.305804 -0.261595 -0.0534465 0.013976 -0.00838447 -0.0155138 0.00541685 -0.00731739 -0.0742196 -0.00253818 0.336589 0.562862 0.346212 0.309962 0.38969 0.883585 1.15911 0.968409 0.179493 -0.260723 -0.29041 -0.526575 0.0619195 0.190295 0.0316761 0.101503 0.0439543 -0.209185 -0.278281 -0.292819 -0.0421809 0.025843 -0.00242461 -0.0162897 0.0176996 -0.00305757 0.0625504 -0.0324294 0.0493705 0.222041 -0.0228973 -0.0546057 0.300368 0.623221 0.66066 0.873732 0.379439 0.055939 -0.189637 -0.252006 -0.51029 -0.163262 -0.195962 -0.226169 -0.265989 -0.426568 -0.326479 -0.255732 -0.0846768 0.0118065 -0.0348997 0.0153206 -0.000700427 -0.045041 0.115939 -0.164497 -0.236521 -0.0938054 -0.22954 -0.310423 -0.155394 0.351698 0.511703 0.823911 0.559456 0.192339 0.1309 0.142231 -0.152522 -0.240937 -0.43306 -0.533602 -0.371743 -0.323239 -0.196486 -0.0921109 -0.00297375 0.00209897 0.0277949 0.0525686 0.0214305 -0.00300911 -0.0395358 -0.0523882 -0.215152 -0.0953681 -0.239595 -0.185952 -0.153095 -0.00758958 0.281019 0.509126 0.783411 0.611222 -0.49511 -0.31401 -0.484539 -0.299021 -0.154685 -0.207127 -0.142167 -0.121484 -0.0691465 0.0421438 0.0679198 -0.0233615 -0.0350804 -0.034415 0.0729796 -0.0449599 -0.0228783 -0.125915 -0.0641744 0.0186516 -0.299787 -0.189272 -0.324105 -0.00913434 -0.029843 0.682529 0.949668 0.274014 -0.649548 -0.84178 -0.670438 -0.260429 -0.24115 0.103644 0.102051 -0.0445242 0.125571 0.200475 -0.0355274 0.0771582 -0.00475807 0.0152668 -0.0295819 -0.0143531 -0.0303586 -0.24921 0.0023607 0.0350915 -0.0413097 -0.18083 -0.143524 0.0428896 -0.16797 0.230654 0.562002 0.287917 -0.0388089 -0.40843 -0.264631 -0.0720613 -0.305038 0.0204746 0.113793 0.168995 0.252667 0.0758232 0.0255356 -0.0269078 -0.0223106 -0.00827797 -0.0117573 -0.0670007 -0.106175 -0.387091 -0.194525 0.06809 0.24161 0.199385 -0.112028 -0.118521 -0.243263 -0.117877 0.110556 0.197069 0.342319 0.166943 0.203564 0.00229173 -0.210369 0.122262 0.396804 0.402921 0.306076 0.0760848 -0.0152406 -0.00207955 -0.0354398 0.0280902 -0.0508971 0.00812719 0.0138285 -0.247873 -0.293317 -0.0902839 0.12968 0.231608 0.0656539 -0.239488 -0.128948 -0.258516 -0.0701598 0.0481835 0.0930154 -0.0417821 0.382969 0.146239 0.208418 0.271047 0.398554 0.318325 0.190406 0.0733232 0.00538614 0.0157736 -0.0632633 -0.0457214 0.0445444 0.0518682 0.0143333 -0.0592577 -0.348426 -0.22475 -0.0981639 -0.0721081 -0.0155028 -0.0797104 -0.0890793 -0.185239 -0.287796 -0.164826 -0.170502 0.0176067 0.297993 0.528622 0.3091 0.196922 0.364265 0.0519292 -0.044276 0.0183311 0.028675 -0.0539881 0.037815 -0.0184148 0.0199788 -0.0573128 0.0250003 -0.130606 -0.230355 -0.33813 -0.37787 -0.18857 -0.0734058 -0.00846457 -0.0391064 -0.00364404 -0.0820855 0.077677 0.198689 0.32002 0.198246 0.175312 0.144452 0.251035 0.118594 0.0421573 -0.0561464 -0.0255876 0.0283159 -0.00918036 -0.0121864 0.0368664 -0.0448044 0.055362 -0.0532458 -0.102865 -0.230863 -0.356677 -0.355747 -0.295572 -0.116759 0.0351984 0.128948 0.0430142 0.160819 0.522055 0.505376 0.29234 -0.108295 0.248432 0.246721 0.140186 -0.136627 0.0200488 -0.000131598 -0.080834 0.0475021 -0.00470158 0.0151761 0.0392666 -0.00961509 -0.00436235 -0.0320734 -0.023846 -0.185745 -0.139603 -0.337811 -0.260761 -0.145274 -0.227795 -0.276445 -0.173735 0.0210005 0.118043 0.2004 -0.0478172 -0.0257935 -0.05833 -0.069365 -0.147856 -0.123296 0.0418633 0.0129806 -0.00447991 -0.0046882 -0.0106747 0.00669818 -0.00760016 0.019049 0.00580771 -0.0270616 0.00127837 -0.026842 -0.0900024 -0.0924822 -0.09561 -0.124805 -0.2249 -0.175954 -0.0806065 -0.113906 -0.274748 -0.21222 -0.0237403 -0.0760728 -0.184767 -0.162458 -0.0863973 -0.123253 -0.0158117 0.00155407 -0.0686063 -0.0439073 0.0556311 -0.0157211 0.0183381 -0.0110554 0.0161948 -0.0391371 -0.0104962 -0.0816017 0.0347789 -0.0639353 0.0178188 0.0703221 0.0089663 -0.0880219 0.0458504 0.00287784 -0.0281109 0.047958 -0.00856924 -0.055719 -0.0575903 0.0139919 0.0155293 -0.0468484 0.0241394 -0.0227623 -0.0191996 -0.0027466 0.00285715 -0.0110253 
